{"learner":{"attributes":{},"feature_names":["hour","day_of_week","region","weather","demand","inventory","competitor_price","demand_inventory_ratio","is_peak_hour","is_weekend"],"feature_types":["int","int","int","int","float","float","float","float","int","int"],"gradient_booster":{"model":{"gbtree_model_param":{"num_parallel_tree":"1","num_trees":"100"},"iteration_indptr":[0,1,2,3,4,5,6,7,8,9,10,11,12,13,14,15,16,17,18,19,20,21,22,23,24,25,26,27,28,29,30,31,32,33,34,35,36,37,38,39,40,41,42,43,44,45,46,47,48,49,50,51,52,53,54,55,56,57,58,59,60,61,62,63,64,65,66,67,68,69,70,71,72,73,74,75,76,77,78,79,80,81,82,83,84,85,86,87,88,89,90,91,92,93,94,95,96,97,98,99,100],"tree_info":[0,0,0,0,0,0,0,0,0,0,0,0,0,0,0,0,0,0,0,0,0,0,0,0,0,0,0,0,0,0,0,0,0,0,0,0,0,0,0,0,0,0,0,0,0,0,0,0,0,0,0,0,0,0,0,0,0,0,0,0,0,0,0,0,0,0,0,0,0,0,0,0,0,0,0,0,0,0,0,0,0,0,0,0,0,0,0,0,0,0,0,0,0,0,0,0,0,0,0,0],"trees":[{"base_weights":[7.270858E-8,-2.2253752E0,2.3196614E0,-3.2674136E0,8.9985865E-1,1.0412701E0,6.161613E0,-4.772487E0,-2.0894566E0,-8.5592717E-1,2.282655E0,1.7136438E-1,2.4017231E0,5.157106E0,8.048381E0,-6.0000043E0,-4.1943517E0,-2.7338073E0,-1.4979708E0,-2.00957E0,-1.0335659E-1,1.3747838E0,3.0618443E0,-3.779303E-1,7.5321865E-1,1.8961385E0,3.6112998E0,4.48097E0,5.9107103E0,7.513422E0,9.439007E-1,-6.870168E-1,-5.5392903E-1,-3.873678E-1,-4.8007843E-1,-2.4367316E-1,-3.3288336E-1,-1.1819824E-1,-2.0886862E-1,-3.7339437E-1,-1.7922407E-1,-5.815419E-2,2.7861705E-2,1.8716948E-1,7.25968E-2,2.576331E-1,3.7575915E-1,-8.910765E-3,-9.695797E-2,1.1358978E-1,-2.671367E-3,2.2513019E-1,1.2327448E-1,3.9444873E-1,2.878169E-1,4.15661E-1,5.268844E-1,5.645382E-1,7.15463E-1,6.796366E-1,8.0500203E-1],"categories":[],"categories_nodes":[],"categories_segments":[],"categories_sizes":[],"default_left":[0,0,0,0,0,0,0,0,0,0,0,0,0,0,0,0,0,0,0,0,0,0,0,0,0,0,0,0,0,0,0,0,0,0,0,0,0,0,0,0,0,0,0,0,0,0,0,0,0,0,0,0,0,0,0,0,0,0,0,0,0],"id":0,"left_children":[1,3,5,7,9,11,13,15,17,19,21,23,25,27,29,31,33,35,37,39,41,43,45,47,49,51,53,55,57,59,-1,-1,-1,-1,-1,-1,-1,-1,-1,-1,-1,-1,-1,-1,-1,-1,-1,-1,-1,-1,-1,-1,-1,-1,-1,-1,-1,-1,-1,-1,-1],"loss_changes":[4.1307258E4,1.3302947E4,1.9236914E4,5.420457E3,2.4832617E3,3.4801614E3,1.8120664E3,9.2863086E2,6.514385E2,3.9134937E2,4.0042554E2,5.739836E2,6.945928E2,3.0013086E2,1.8052734E2,1.3352832E2,1.5972852E2,1.371914E2,1.6533801E2,6.001465E1,5.020927E1,8.4400635E1,9.402222E1,1.5780832E2,2.6029077E2,1.8830713E2,7.096631E1,6.549902E1,5.862207E1,4.109668E1,0E0,0E0,0E0,0E0,0E0,0E0,0E0,0E0,0E0,0E0,0E0,0E0,0E0,0E0,0E0,0E0,0E0,0E0,0E0,0E0,0E0,0E0,0E0,0E0,0E0,0E0,0E0,0E0,0E0,0E0,0E0],"parents":[2147483647,0,0,1,1,2,2,3,3,4,4,5,5,6,6,7,7,8,8,9,9,10,10,11,11,12,12,13,13,14,14,15,15,16,16,17,17,18,18,19,19,20,20,21,21,22,22,23,23,24,24,25,25,26,26,27,27,28,28,29,29],"right_children":[2,4,6,8,10,12,14,16,18,20,22,24,26,28,30,32,34,36,38,40,42,44,46,48,50,52,54,56,58,60,-1,-1,-1,-1,-1,-1,-1,-1,-1,-1,-1,-1,-1,-1,-1,-1,-1,-1,-1,-1,-1,-1,-1,-1,-1,-1,-1,-1,-1,-1,-1],"split_conditions":[9.706062E-2,4.47428E-1,9.2902315E-1,-8.432063E-1,-8.784663E-1,9.315475E-1,1.0216564E0,-1.5092287E0,-3.613195E-1,-1.4543798E0,-4.0441507E-1,5.2018076E-1,1.5152966E0,5.828652E-1,1.6367477E0,-1.9205955E0,2E0,2E0,2E0,-2.1164844E0,-1.1879709E0,2E0,1.6421155E0,2E0,2E0,2E0,2E0,1.9253364E0,2.4235759E0,1.3875064E0,9.439007E-1,-6.870168E-1,-5.5392903E-1,-3.873678E-1,-4.8007843E-1,-2.4367316E-1,-3.3288336E-1,-1.1819824E-1,-2.0886862E-1,-3.7339437E-1,-1.7922407E-1,-5.815419E-2,2.7861705E-2,1.8716948E-1,7.25968E-2,2.576331E-1,3.7575915E-1,-8.910765E-3,-9.695797E-2,1.1358978E-1,-2.671367E-3,2.2513019E-1,1.2327448E-1,3.9444873E-1,2.878169E-1,4.15661E-1,5.268844E-1,5.645382E-1,7.15463E-1,6.796366E-1,8.0500203E-1],"split_indices":[6,7,4,6,6,6,6,6,6,6,6,6,6,6,6,6,3,3,3,6,6,3,7,3,3,3,3,7,7,7,0,0,0,0,0,0,0,0,0,0,0,0,0,0,0,0,0,0,0,0,0,0,0,0,0,0,0,0,0,0,0],"split_type":[0,0,0,0,0,0,0,0,0,0,0,0,0,0,0,0,0,0,0,0,0,0,0,0,0,0,0,0,0,0,0,0,0,0,0,0,0,0,0,0,0,0,0,0,0,0,0,0,0,0,0,0,0,0,0,0,0,0,0,0,0],"sum_hessian":[8E3,4.083E3,3.917E3,3.062E3,1.021E3,2.94E3,9.77E2,1.343E3,1.719E3,4.5E2,5.71E2,1.794E3,1.146E3,6.4E2,3.37E2,4.27E2,9.16E2,8.21E2,8.98E2,1.77E2,2.73E2,2.65E2,3.06E2,9.23E2,8.71E2,8.1E2,3.36E2,3.41E2,2.99E2,2.48E2,8.9E1,1.43E2,2.84E2,6.04E2,3.12E2,5.51E2,2.7E2,5.87E2,3.11E2,1.8E1,1.59E2,1.21E2,1.52E2,1.49E2,1.16E2,1.83E2,1.23E2,6.21E2,3.02E2,5.84E2,2.87E2,5.26E2,2.84E2,2.28E2,1.08E2,2.46E2,9.5E1,2.51E2,4.8E1,1.12E2,1.36E2],"tree_param":{"num_deleted":"0","num_feature":"10","num_nodes":"61","size_leaf_vector":"1"}},{"base_weights":[3.7308488E-4,-2.1317239E0,1.9675168E0,-3.0743814E0,6.605453E-1,8.2254356E-1,5.439361E0,-4.4213595E0,-2.0820267E0,-9.383137E-1,1.7841978E0,-1.5104677E-1,1.9157073E0,4.301739E0,6.8613105E0,-5.494905E0,-3.9217637E0,-2.6975205E0,-1.5677197E0,-1.9423411E0,-3.1106153E-1,1.0587322E0,2.5477455E0,-6.760315E-1,2.681938E-1,1.3742962E0,2.978335E0,3.6343737E0,4.784731E0,6.1832E0,7.98032E0,-6.389523E-1,-5.144246E-1,-3.620723E-1,-4.4920164E-1,-2.4158573E-1,-3.2568008E-1,-1.3024303E-1,-2.1082388E-1,-3.380202E-1,-1.7271817E-1,2.340175E-3,-9.088489E-2,1.466534E-1,5.4011952E-2,2.1123318E-1,3.251728E-1,-3.903022E-2,-1.191472E-1,5.865671E-2,-3.622289E-2,1.6852188E-1,7.491991E-2,2.6175043E-1,3.688506E-1,3.425365E-1,5.0802183E-1,5.113283E-1,4.0686598E-1,6.5408176E-1,5.333209E-1,7.3096E-1,8.572006E-1],"categories":[],"categories_nodes":[],"categories_segments":[],"categories_sizes":[],"default_left":[0,0,0,0,0,0,0,0,0,0,0,0,0,0,0,0,0,0,0,0,0,0,0,0,0,0,0,0,0,0,0,0,0,0,0,0,0,0,0,0,0,0,0,0,0,0,0,0,0,0,0,0,0,0,0,0,0,0,0,0,0,0,0],"id":1,"left_children":[1,3,5,7,9,11,13,15,17,19,21,23,25,27,29,31,33,35,37,39,41,43,45,47,49,51,53,55,57,59,61,-1,-1,-1,-1,-1,-1,-1,-1,-1,-1,-1,-1,-1,-1,-1,-1,-1,-1,-1,-1,-1,-1,-1,-1,-1,-1,-1,-1,-1,-1,-1,-1],"loss_changes":[3.356152E4,1.0109498E4,1.6540176E4,3.8284043E3,1.7443391E3,3.332593E3,1.6398906E3,6.311738E2,5.19666E2,2.5193692E2,3.130415E2,3.6487857E2,8.4450146E2,1.6827344E2,2.9743164E2,8.759375E1,1.269082E2,1.1059326E2,1.26882324E2,4.1804688E1,4.9605865E1,6.1386322E1,7.803821E1,1.0793042E2,1.8526688E2,1.8901282E2,1.1770215E2,5.693799E1,5.7068848E1,5.2963867E1,4.411133E0,0E0,0E0,0E0,0E0,0E0,0E0,0E0,0E0,0E0,0E0,0E0,0E0,0E0,0E0,0E0,0E0,0E0,0E0,0E0,0E0,0E0,0E0,0E0,0E0,0E0,0E0,0E0,0E0,0E0,0E0,0E0,0E0],"parents":[2147483647,0,0,1,1,2,2,3,3,4,4,5,5,6,6,7,7,8,8,9,9,10,10,11,11,12,12,13,13,14,14,15,15,16,16,17,17,18,18,19,19,20,20,21,21,22,22,23,23,24,24,25,25,26,26,27,27,28,28,29,29,30,30],"right_children":[2,4,6,8,10,12,14,16,18,20,22,24,26,28,30,32,34,36,38,40,42,44,46,48,50,52,54,56,58,60,62,-1,-1,-1,-1,-1,-1,-1,-1,-1,-1,-1,-1,-1,-1,-1,-1,-1,-1,-1,-1,-1,-1,-1,-1,-1,-1,-1,-1,-1,-1,-1,-1],"split_conditions":[1.0869485E-2,9.2902315E-1,9.2902315E-1,-9.2547965E-1,-9.881641E-1,7.552475E-1,8.3752084E-1,-1.5562421E0,-4.7493508E-1,-1.5248998E0,-4.4751063E-1,3.399629E-1,1.3546677E0,3.4779847E-1,1.4212699E0,-2.0263755E0,2E0,2E0,2E0,-2.1164844E0,2E0,2E0,1.6722622E0,2E0,2E0,2E0,1.7973766E0,2.5451884E0,2E0,2E0,1.6602544E0,-6.389523E-1,-5.144246E-1,-3.620723E-1,-4.4920164E-1,-2.4158573E-1,-3.2568008E-1,-1.3024303E-1,-2.1082388E-1,-3.380202E-1,-1.7271817E-1,2.340175E-3,-9.088489E-2,1.466534E-1,5.4011952E-2,2.1123318E-1,3.251728E-1,-3.903022E-2,-1.191472E-1,5.865671E-2,-3.622289E-2,1.6852188E-1,7.491991E-2,2.6175043E-1,3.688506E-1,3.425365E-1,5.0802183E-1,5.113283E-1,4.0686598E-1,6.5408176E-1,5.333209E-1,7.3096E-1,8.572006E-1],"split_indices":[6,4,4,6,6,6,6,6,6,6,6,6,6,6,6,6,3,3,3,6,3,3,7,3,3,3,6,7,3,3,6,0,0,0,0,0,0,0,0,0,0,0,0,0,0,0,0,0,0,0,0,0,0,0,0,0,0,0,0,0,0,0,0],"split_type":[0,0,0,0,0,0,0,0,0,0,0,0,0,0,0,0,0,0,0,0,0,0,0,0,0,0,0,0,0,0,0,0,0,0,0,0,0,0,0,0,0,0,0,0,0,0,0,0,0,0,0,0,0,0,0,0,0,0,0,0,0,0,0],"sum_hessian":[8E3,3.839E3,4.161E3,2.87E3,9.69E2,3.13E3,1.031E3,1.216E3,1.654E3,4E2,5.69E2,1.656E3,1.474E3,5.75E2,4.56E2,3.83E2,8.33E2,7.51E2,9.03E2,1.53E2,2.47E2,2.93E2,2.76E2,7.35E2,9.21E2,9.78E2,4.96E2,2.45E2,3.3E2,2.88E2,1.68E2,1.03E2,2.8E2,5.5E2,2.83E2,5.03E2,2.48E2,6.08E2,2.95E2,1.8E1,1.35E2,1.59E2,8.8E1,1.63E2,1.3E2,1.73E2,1.03E2,4.74E2,2.61E2,6.12E2,3.09E2,6.52E2,3.26E2,3.32E2,1.64E2,2.17E2,2.8E1,2.22E2,1.08E2,1.98E2,9E1,8.5E1,8.3E1],"tree_param":{"num_deleted":"0","num_feature":"10","num_nodes":"63","size_leaf_vector":"1"}},{"base_weights":[6.5397384E-4,-1.7877082E0,1.9024603E0,-2.6299508E0,7.383034E-1,8.615516E-1,5.022152E0,-3.859317E0,-1.6578774E0,-5.1270545E-1,2.0499015E0,2.7099973E-1,2.1987712E0,4.263094E0,6.687012E0,-4.6090713E0,-3.20082E0,-2.0893233E0,-1.0372007E0,-1.4853308E0,1.738465E-1,1.5443273E0,2.8106525E0,-1.8810737E-1,8.594918E-1,1.8241607E0,3.1108031E0,3.6540148E0,4.8558598E0,6.258342E0,7.72501E-1,-5.4183525E-1,-4.2495403E-1,-2.9522595E-1,-3.6808184E-1,-1.8474711E-1,-2.575447E-1,-7.857602E-2,-1.5152209E-1,-2.4404292E-1,-1.1733216E-1,-8.6132055E-3,8.336346E-2,1.9339925E-1,9.016685E-2,3.124404E-1,2.095112E-1,6.443119E-3,-6.860811E-2,1.1622012E-1,2.439078E-2,2.1189316E-1,1.247947E-1,3.4358624E-1,2.4324012E-1,3.3656418E-1,4.3759775E-1,4.5216322E-1,5.719175E-1,5.7951254E-1,6.947527E-1],"categories":[],"categories_nodes":[],"categories_segments":[],"categories_sizes":[],"default_left":[0,0,0,0,0,0,0,0,0,0,0,0,0,0,0,0,0,0,0,0,0,0,0,0,0,0,0,0,0,0,0,0,0,0,0,0,0,0,0,0,0,0,0,0,0,0,0,0,0,0,0,0,0,0,0,0,0,0,0,0,0],"id":2,"left_children":[1,3,5,7,9,11,13,15,17,19,21,23,25,27,29,31,33,35,37,39,41,43,45,47,49,51,53,55,57,59,-1,-1,-1,-1,-1,-1,-1,-1,-1,-1,-1,-1,-1,-1,-1,-1,-1,-1,-1,-1,-1,-1,-1,-1,-1,-1,-1,-1,-1,-1,-1],"loss_changes":[2.721575E4,8.775811E3,1.2588758E4,3.6898438E3,1.6943782E3,2.2966338E3,1.1973086E3,6.591621E2,4.6083887E2,3.5350214E2,1.8950586E2,5.45657E2,2.987417E2,2.2379395E2,8.603223E1,1.6202734E2,7.6229004E1,1.150459E2,8.426715E1,6.23985E1,5.3417862E1,7.463483E1,3.835437E1,1.4277907E2,1.6463007E2,1.0504126E2,4.8536865E1,5.480957E1,7.109033E1,2.9651367E1,0E0,0E0,0E0,0E0,0E0,0E0,0E0,0E0,0E0,0E0,0E0,0E0,0E0,0E0,0E0,0E0,0E0,0E0,0E0,0E0,0E0,0E0,0E0,0E0,0E0,0E0,0E0,0E0,0E0,0E0,0E0],"parents":[2147483647,0,0,1,1,2,2,3,3,4,4,5,5,6,6,7,7,8,8,9,9,10,10,11,11,12,12,13,13,14,14,15,15,16,16,17,17,18,18,19,19,20,20,21,21,22,22,23,23,24,24,25,25,26,26,27,27,28,28,29,29],"right_children":[2,4,6,8,10,12,14,16,18,20,22,24,26,28,30,32,34,36,38,40,42,44,46,48,50,52,54,56,58,60,-1,-1,-1,-1,-1,-1,-1,-1,-1,-1,-1,-1,-1,-1,-1,-1,-1,-1,-1,-1,-1,-1,-1,-1,-1,-1,-1,-1,-1,-1,-1],"split_conditions":[1.1273173E-1,9.2902315E-1,9.2902315E-1,-8.275352E-1,-7.335085E-1,1.0686698E0,1.0686698E0,-1.309422E0,-2.3595059E-1,-1.3525176E0,-2.3595059E-1,6.22043E-1,1.6367477E0,5.828652E-1,1.6602544E0,-1.8344043E0,2E0,2E0,2E0,-1.8657466E0,1.833706E0,2E0,2E0,2E0,2E0,2E0,2E0,1.9253364E0,1.9762421E0,1.7212508E0,7.72501E-1,-5.4183525E-1,-4.2495403E-1,-2.9522595E-1,-3.6808184E-1,-1.8474711E-1,-2.575447E-1,-7.857602E-2,-1.5152209E-1,-2.4404292E-1,-1.1733216E-1,-8.6132055E-3,8.336346E-2,1.9339925E-1,9.016685E-2,3.124404E-1,2.095112E-1,6.443119E-3,-6.860811E-2,1.1622012E-1,2.439078E-2,2.1189316E-1,1.247947E-1,3.4358624E-1,2.4324012E-1,3.3656418E-1,4.3759775E-1,4.5216322E-1,5.719175E-1,5.7951254E-1,6.947527E-1],"split_indices":[6,4,4,6,6,6,6,6,6,6,6,6,6,6,6,6,3,3,3,6,7,3,3,3,3,3,3,7,7,7,0,0,0,0,0,0,0,0,0,0,0,0,0,0,0,0,0,0,0,0,0,0,0,0,0,0,0,0,0,0,0],"split_type":[0,0,0,0,0,0,0,0,0,0,0,0,0,0,0,0,0,0,0,0,0,0,0,0,0,0,0,0,0,0,0,0,0,0,0,0,0,0,0,0,0,0,0,0,0,0,0,0,0,0,0,0,0,0,0,0,0,0,0,0,0],"sum_hessian":[8E3,4.123E3,3.877E3,3.092E3,1.031E3,2.908E3,9.69E2,1.364E3,1.728E3,5.28E2,5.03E2,2.018E3,8.9E2,6.68E2,3.01E2,6.35E2,7.29E2,1.018E3,7.1E2,2.18E2,3.1E2,3.04E2,1.99E2,1.134E3,8.84E2,6.33E2,2.57E2,3.33E2,3.35E2,2.18E2,8.3E1,1.91E2,4.44E2,4.85E2,2.44E2,6.83E2,3.35E2,4.67E2,2.43E2,5.2E1,1.66E2,2.23E2,8.7E1,1.88E2,1.16E2,1.36E2,6.3E1,7.53E2,3.81E2,5.92E2,2.92E2,4.17E2,2.16E2,1.71E2,8.6E1,2.42E2,9.1E1,2.46E2,8.9E1,1.36E2,8.2E1],"tree_param":{"num_deleted":"0","num_feature":"10","num_nodes":"61","size_leaf_vector":"1"}},{"base_weights":[9.7138685E-4,-1.7295568E0,1.5976142E0,-2.4937012E0,5.339361E-1,6.683964E-1,4.4152336E0,-3.7543452E0,-1.7809993E0,-8.335127E-1,1.4160786E0,-6.870433E-2,1.6333098E0,3.6854885E0,5.9026823E0,-4.625972E0,-3.3927772E0,-2.3598487E0,-1.3083904E0,-1.5920676E0,-3.1749976E-1,6.052248E-1,1.8930913E0,-5.081731E-1,3.3252087E-1,1.1689243E0,2.4335878E0,3.1498244E0,4.2583427E0,5.5306797E0,6.961705E0,-5.418291E-1,-4.339059E-1,-3.1340122E-1,-3.862872E-1,-2.1299909E-1,-2.8085157E-1,-1.1013329E-1,-1.7393999E-1,-2.8287733E-1,-1.4075862E-1,-9.873998E-4,-8.86484E-2,2.4241714E-2,1.08896255E-1,1.6186182E-1,2.7320728E-1,-2.7832527E-2,-9.3586795E-2,6.0314953E-2,-2.1508802E-2,1.428244E-1,6.6741996E-2,2.728339E-1,1.8348077E-1,3.440506E-1,2.524894E-1,4.0433702E-1,5.3177565E-1,5.063311E-1,6.082202E-1,1.9805622E-1,6.997857E-1],"categories":[],"categories_nodes":[],"categories_segments":[],"categories_sizes":[],"default_left":[0,0,0,0,0,0,0,0,0,0,0,0,0,0,0,0,0,0,0,0,0,0,0,0,0,0,0,0,0,0,0,0,0,0,0,0,0,0,0,0,0,0,0,0,0,0,0,0,0,0,0,0,0,0,0,0,0,0,0,0,0,0,0],"id":3,"left_children":[1,3,5,7,9,11,13,15,17,19,21,23,25,27,29,31,33,35,37,39,41,43,45,47,49,51,53,55,57,59,61,-1,-1,-1,-1,-1,-1,-1,-1,-1,-1,-1,-1,-1,-1,-1,-1,-1,-1,-1,-1,-1,-1,-1,-1,-1,-1,-1,-1,-1,-1,-1,-1],"loss_changes":[2.2109809E4,6.643132E3,1.0893922E4,2.5728008E3,1.1712764E3,2.2269995E3,1.0984375E3,3.1080273E2,4.9918555E2,1.486271E2,2.2705896E2,3.1332382E2,5.010957E2,1.9985254E2,9.465527E1,4.491455E1,7.7424805E1,7.899707E1,8.84884E1,3.115326E1,3.9899048E1,3.8346832E1,8.101099E1,8.3101944E1,1.3780629E2,1.1088965E2,8.271045E1,5.725415E1,5.4337402E1,3.4933594E1,1.2668457E0,0E0,0E0,0E0,0E0,0E0,0E0,0E0,0E0,0E0,0E0,0E0,0E0,0E0,0E0,0E0,0E0,0E0,0E0,0E0,0E0,0E0,0E0,0E0,0E0,0E0,0E0,0E0,0E0,0E0,0E0,0E0,0E0],"parents":[2147483647,0,0,1,1,2,2,3,3,4,4,5,5,6,6,7,7,8,8,9,9,10,10,11,11,12,12,13,13,14,14,15,15,16,16,17,17,18,18,19,19,20,20,21,21,22,22,23,23,24,24,25,25,26,26,27,27,28,28,29,29,30,30],"right_children":[2,4,6,8,10,12,14,16,18,20,22,24,26,28,30,32,34,36,38,40,42,44,46,48,50,52,54,56,58,60,62,-1,-1,-1,-1,-1,-1,-1,-1,-1,-1,-1,-1,-1,-1,-1,-1,-1,-1,-1,-1,-1,-1,-1,-1,-1,-1,-1,-1,-1,-1,-1,-1],"split_conditions":[1.0869485E-2,9.2902315E-1,9.2902315E-1,-1.0469308E0,-1.027342E0,8.257675E-1,1.0216564E0,-1.6541865E0,-5.4153734E-1,-1.5248998E0,-6.081396E-1,3.830585E-1,1.3546677E0,5.319341E-1,1.6602544E0,-2.1164844E0,2E0,2E0,2E0,-2.1164844E0,2E0,1.5388956E0,2.072963E0,2E0,2E0,2E0,2E0,2E0,2.4235759E0,1.5629802E0,1.0283233E0,-5.418291E-1,-4.339059E-1,-3.1340122E-1,-3.862872E-1,-2.1299909E-1,-2.8085157E-1,-1.1013329E-1,-1.7393999E-1,-2.8287733E-1,-1.4075862E-1,-9.873998E-4,-8.86484E-2,2.4241714E-2,1.08896255E-1,1.6186182E-1,2.7320728E-1,-2.7832527E-2,-9.3586795E-2,6.0314953E-2,-2.1508802E-2,1.428244E-1,6.6741996E-2,2.728339E-1,1.8348077E-1,3.440506E-1,2.524894E-1,4.0433702E-1,5.3177565E-1,5.063311E-1,6.082202E-1,1.9805622E-1,6.997857E-1],"split_indices":[6,4,4,6,6,6,6,6,6,6,6,6,6,6,6,6,3,3,3,6,3,7,7,3,3,3,3,3,7,7,4,0,0,0,0,0,0,0,0,0,0,0,0,0,0,0,0,0,0,0,0,0,0,0,0,0,0,0,0,0,0,0,0],"split_type":[0,0,0,0,0,0,0,0,0,0,0,0,0,0,0,0,0,0,0,0,0,0,0,0,0,0,0,0,0,0,0,0,0,0,0,0,0,0,0,0,0,0,0,0,0,0,0,0,0,0,0,0,0,0,0,0,0,0,0,0,0,0,0],"sum_hessian":[8E3,3.839E3,4.161E3,2.87E3,9.69E2,3.13E3,1.031E3,1.035E3,1.835E3,3.8E2,5.89E2,1.775E3,1.355E3,6.94E2,3.37E2,3E2,7.35E2,8.23E2,1.012E3,1.53E2,2.27E2,2.19E2,3.7E2,8.47E2,9.28E2,8.59E2,4.96E2,3.62E2,3.32E2,2.54E2,8.3E1,7.5E1,2.25E2,4.79E2,2.56E2,5.48E2,2.75E2,6.86E2,3.26E2,1.8E1,1.35E2,1.48E2,7.9E1,1.26E2,9.3E1,2.81E2,8.9E1,5.52E2,2.95E2,6.21E2,3.07E2,5.65E2,2.94E2,3.3E2,1.66E2,2.44E2,1.18E2,2.8E2,5.2E1,1.43E2,1.11E2,1E0,8.2E1],"tree_param":{"num_deleted":"0","num_feature":"10","num_nodes":"63","size_leaf_vector":"1"}},{"base_weights":[1.090562E-3,-1.4389627E0,1.5579957E0,-2.1224437E0,6.115499E-1,7.117646E-1,4.100355E0,-3.1012447E0,-1.3105047E0,-4.7165498E-1,1.6153908E0,2.0057915E-1,1.7339269E0,3.4817998E0,5.4365387E0,-3.771573E0,-2.579912E0,-1.729152E0,-8.878576E-1,-1.2193291E0,1.0860051E-1,1.1872736E0,2.2824926E0,-2.4475789E-1,5.6651795E-1,1.3643428E0,2.415309E0,3.0366926E0,3.9761393E0,5.0683208E0,6.274385E-1,-4.5628205E-1,-3.5227123E-1,-2.3735385E-1,-2.9724783E-1,-1.5348783E-1,-2.1233192E-1,-6.764155E-2,-1.2903225E-1,-2.014621E-1,-9.596298E-2,-4.088985E-3,9.9195555E-2,1.5647636E-1,5.9157945E-2,1.9734927E-1,2.835363E-1,-5.441227E-3,-6.2460512E-2,8.204212E-2,5.782575E-3,1.5945491E-1,9.322596E-2,2.1866523E-1,3.0472347E-1,2.532936E-1,3.3957362E-1,4.299098E-1,3.3352706E-1,5.356037E-1,4.197157E-1],"categories":[],"categories_nodes":[],"categories_segments":[],"categories_sizes":[],"default_left":[0,0,0,0,0,0,0,0,0,0,0,0,0,0,0,0,0,0,0,0,0,0,0,0,0,0,0,0,0,0,0,0,0,0,0,0,0,0,0,0,0,0,0,0,0,0,0,0,0,0,0,0,0,0,0,0,0,0,0,0,0],"id":4,"left_children":[1,3,5,7,9,11,13,15,17,19,21,23,25,27,29,31,33,35,37,39,41,43,45,47,49,51,53,55,57,59,-1,-1,-1,-1,-1,-1,-1,-1,-1,-1,-1,-1,-1,-1,-1,-1,-1,-1,-1,-1,-1,-1,-1,-1,-1,-1,-1,-1,-1,-1,-1],"loss_changes":[1.7940693E4,5.8272773E3,8.269304E3,2.4738945E3,1.131622E3,1.5076288E3,7.745156E2,4.8406152E2,3.003247E2,2.1748727E2,1.5151294E2,3.138484E2,2.3896338E2,1.3292822E2,6.136914E1,1.0522363E2,5.7595215E1,6.229004E1,7.1545715E1,4.329831E1,3.741158E1,7.35058E1,3.0280151E1,6.2796684E1,1.3647324E2,6.078064E1,4.203125E1,5.4884277E1,4.961621E1,3.140918E1,0E0,0E0,0E0,0E0,0E0,0E0,0E0,0E0,0E0,0E0,0E0,0E0,0E0,0E0,0E0,0E0,0E0,0E0,0E0,0E0,0E0,0E0,0E0,0E0,0E0,0E0,0E0,0E0,0E0,0E0,0E0],"parents":[2147483647,0,0,1,1,2,2,3,3,4,4,5,5,6,6,7,7,8,8,9,9,10,10,11,11,12,12,13,13,14,14,15,15,16,16,17,17,18,18,19,19,20,20,21,21,22,22,23,23,24,24,25,25,26,26,27,27,28,28,29,29],"right_children":[2,4,6,8,10,12,14,16,18,20,22,24,26,28,30,32,34,36,38,40,42,44,46,48,50,52,54,56,58,60,-1,-1,-1,-1,-1,-1,-1,-1,-1,-1,-1,-1,-1,-1,-1,-1,-1,-1,-1,-1,-1,-1,-1,-1,-1,-1,-1,-1,-1,-1,-1],"split_conditions":[1.24485075E-1,4.47428E-1,9.2902315E-1,-8.040285E-1,-7.7660406E-1,1.0334097E0,1.0686698E0,-1.3290108E0,-2.9863504E-1,-1.3525176E0,-2.3595059E-1,5.2018076E-1,1.5152966E0,6.22043E-1,1.9253364E0,-1.9205955E0,2E0,2E0,2E0,-1.8657466E0,2.3403678E0,2E0,1.9220253E0,2E0,2E0,2E0,1.9423344E0,1.2577441E0,2E0,2E0,6.274385E-1,-4.5628205E-1,-3.5227123E-1,-2.3735385E-1,-2.9724783E-1,-1.5348783E-1,-2.1233192E-1,-6.764155E-2,-1.2903225E-1,-2.014621E-1,-9.596298E-2,-4.088985E-3,9.9195555E-2,1.5647636E-1,5.9157945E-2,1.9734927E-1,2.835363E-1,-5.441227E-3,-6.2460512E-2,8.204212E-2,5.782575E-3,1.5945491E-1,9.322596E-2,2.1866523E-1,3.0472347E-1,2.532936E-1,3.3957362E-1,4.299098E-1,3.3352706E-1,5.356037E-1,4.197157E-1],"split_indices":[6,7,4,6,6,6,6,6,6,6,6,6,6,6,7,6,3,3,3,6,7,3,4,3,3,3,6,7,3,3,0,0,0,0,0,0,0,0,0,0,0,0,0,0,0,0,0,0,0,0,0,0,0,0,0,0,0,0,0,0,0],"split_type":[0,0,0,0,0,0,0,0,0,0,0,0,0,0,0,0,0,0,0,0,0,0,0,0,0,0,0,0,0,0,0,0,0,0,0,0,0,0,0,0,0,0,0,0,0,0,0,0,0,0,0,0,0,0,0,0,0,0,0,0,0],"sum_hessian":[8E3,4.156E3,3.844E3,3.117E3,1.039E3,2.885E3,9.59E2,1.412E3,1.705E3,5E2,5.39E2,1.924E3,9.61E2,6.58E2,3.01E2,6.15E2,7.97E2,8.55E2,8.5E2,2.18E2,2.82E2,3.3E2,2.09E2,8.68E2,1.056E3,6.25E2,3.36E2,3.5E2,3.08E2,2.14E2,8.7E1,1.43E2,4.72E2,5.27E2,2.7E2,5.76E2,2.79E2,5.59E2,2.91E2,5.2E1,1.66E2,2.42E2,4E1,2.01E2,1.29E2,1.37E2,7.2E1,5.79E2,2.89E2,7.04E2,3.52E2,4.06E2,2.19E2,2.5E2,8.6E1,1.49E2,2.01E2,2.01E2,1.07E2,1.57E2,5.7E1],"tree_param":{"num_deleted":"0","num_feature":"10","num_nodes":"61","size_leaf_vector":"1"}},{"base_weights":[1.2720082E-3,-1.4721158E0,1.237617E0,-2.1014998E0,3.5837495E-1,4.8734704E-1,3.5434685E0,-3.1151586E0,-1.5476623E0,-8.2908547E-1,9.923974E-1,-2.0090063E-1,1.217171E0,2.7907677E0,4.5398803E0,-3.8856382E0,-2.8540056E0,-1.9546641E0,-1.1398277E0,-1.5562692E0,-5.321569E-1,4.2542043E-1,1.4534876E0,-5.604686E-1,8.21818E-2,7.9351366E-1,1.8814431E0,3.0698295E0,2.2147722E0,4.0157695E0,5.277946E0,-4.6169612E-1,-3.653675E-1,-2.621493E-1,-3.2859594E-1,-1.7680414E-1,-2.323772E-1,-9.705625E-2,-1.4885771E-1,-9.5346205E-2,-1.9482909E-1,-2.3725396E-2,-1.0428437E-1,7.568529E-2,-1.5422628E-3,1.771336E-1,7.752957E-2,-3.677855E-2,-9.142784E-2,2.8266504E-2,-3.005874E-2,1.0024772E-1,3.763553E-2,1.6489588E-1,2.5125432E-1,2.6170433E-1,3.4864363E-1,1.7072867E-1,2.588263E-1,3.7952983E-1,5.016447E-1,4.9169827E-1,6.0149336E-1],"categories":[],"categories_nodes":[],"categories_segments":[],"categories_sizes":[],"default_left":[0,0,0,0,0,0,0,0,0,0,0,0,0,0,0,0,0,0,0,0,0,0,0,0,0,0,0,0,0,0,0,0,0,0,0,0,0,0,0,0,0,0,0,0,0,0,0,0,0,0,0,0,0,0,0,0,0,0,0,0,0,0,0],"id":5,"left_children":[1,3,5,7,9,11,13,15,17,19,21,23,25,27,29,31,33,35,37,39,41,43,45,47,49,51,53,55,57,59,61,-1,-1,-1,-1,-1,-1,-1,-1,-1,-1,-1,-1,-1,-1,-1,-1,-1,-1,-1,-1,-1,-1,-1,-1,-1,-1,-1,-1,-1,-1,-1,-1],"loss_changes":[1.4576569E4,4.2070044E3,7.5255522E3,1.5205088E3,7.0476245E2,1.6497966E3,7.883301E2,1.8187305E2,2.8974756E2,6.956227E1,1.5885248E2,1.7216852E2,4.4709644E2,9.141211E1,1.5597266E2,2.384497E1,6.369922E1,5.644043E1,5.0561646E1,2.035585E1,3.4843094E1,4.019185E1,7.105554E1,5.0452774E1,7.2756615E1,8.461432E1,8.6823975E1,6.802734E1,3.4057983E1,4.0969727E1,2.0171387E1,0E0,0E0,0E0,0E0,0E0,0E0,0E0,0E0,0E0,0E0,0E0,0E0,0E0,0E0,0E0,0E0,0E0,0E0,0E0,0E0,0E0,0E0,0E0,0E0,0E0,0E0,0E0,0E0,0E0,0E0,0E0,0E0],"parents":[2147483647,0,0,1,1,2,2,3,3,4,4,5,5,6,6,7,7,8,8,9,9,10,10,11,11,12,12,13,13,14,14,15,15,16,16,17,17,18,18,19,19,20,20,21,21,22,22,23,23,24,24,25,25,26,26,27,27,28,28,29,29,30,30],"right_children":[2,4,6,8,10,12,14,16,18,20,22,24,26,28,30,32,34,36,38,40,42,44,46,48,50,52,54,56,58,60,62,-1,-1,-1,-1,-1,-1,-1,-1,-1,-1,-1,-1,-1,-1,-1,-1,-1,-1,-1,-1,-1,-1,-1,-1,-1,-1,-1,-1,-1,-1,-1,-1],"split_conditions":[-6.356832E-2,9.2902315E-1,3.3322176E-1,-1.0939442E0,-1.1370397E0,6.964808E-1,8.3752084E-1,-1.7442955E0,-5.572085E-1,-1.6855288E0,-6.081396E-1,2.694429E-1,1.2567232E0,2E0,1.3781743E0,-2.2183466E0,2E0,2E0,2E0,-1.7069348E0,2E0,2E0,2E0,2E0,2E0,2E0,1.7973766E0,1E0,1.4235513E0,2.4235759E0,1.9253364E0,-4.6169612E-1,-3.653675E-1,-2.621493E-1,-3.2859594E-1,-1.7680414E-1,-2.323772E-1,-9.705625E-2,-1.4885771E-1,-9.5346205E-2,-1.9482909E-1,-2.3725396E-2,-1.0428437E-1,7.568529E-2,-1.5422628E-3,1.771336E-1,7.752957E-2,-3.677855E-2,-9.142784E-2,2.8266504E-2,-3.005874E-2,1.0024772E-1,3.763553E-2,1.6489588E-1,2.5125432E-1,2.6170433E-1,3.4864363E-1,1.7072867E-1,2.588263E-1,3.7952983E-1,5.016447E-1,4.9169827E-1,6.0149336E-1],"split_indices":[6,4,4,6,6,6,6,6,6,6,6,6,6,3,6,6,3,3,3,5,3,3,3,3,3,3,6,3,7,7,7,0,0,0,0,0,0,0,0,0,0,0,0,0,0,0,0,0,0,0,0,0,0,0,0,0,0,0,0,0,0,0,0],"split_type":[0,0,0,0,0,0,0,0,0,0,0,0,0,0,0,0,0,0,0,0,0,0,0,0,0,0,0,0,0,0,0,0,0,0,0,0,0,0,0,0,0,0,0,0,0,0,0,0,0,0,0,0,0,0,0,0,0,0,0,0,0,0,0],"sum_hessian":[8E3,3.65E3,4.35E3,2.716E3,9.34E2,3.283E3,1.067E3,9.58E2,1.758E3,3.25E2,6.09E2,1.69E3,1.593E3,6.1E2,4.57E2,2.39E2,7.19E2,8.78E2,8.8E2,9.3E1,2.32E2,2.74E2,3.35E2,7.44E2,9.46E2,9.74E2,6.19E2,4.08E2,2.02E2,2.71E2,1.86E2,5.3E1,1.86E2,4.72E2,2.47E2,5.87E2,2.91E2,5.95E2,2.85E2,3.8E1,5.5E1,1.48E2,8.4E1,1.56E2,1.18E2,2.27E2,1.08E2,4.83E2,2.61E2,6.21E2,3.25E2,6.48E2,3.26E2,4.55E2,1.64E2,1.99E2,2.09E2,8.8E1,1.14E2,2.26E2,4.5E1,1.3E2,5.6E1],"tree_param":{"num_deleted":"0","num_feature":"10","num_nodes":"63","size_leaf_vector":"1"}},{"base_weights":[1.3042148E-3,-1.1449084E0,1.291859E0,-1.700278E0,5.175717E-1,6.024861E-1,3.3652093E0,-2.4940035E0,-1.0187492E0,-4.8095083E-1,1.2582489E0,2.3555121E-1,1.5379661E0,2.8948286E0,4.519987E0,-3.0575094E0,-2.060249E0,-1.3357486E0,-6.5096074E-1,-1.1146926E0,-7.049076E-2,7.7826726E-1,1.7112083E0,-8.982866E-2,6.0516226E-1,1.2687925E0,2.0943484E0,2.7084079E0,3.95528E0,4.281368E0,5.5610657E0,-3.785436E-1,-2.8791317E-1,-1.8955347E-1,-2.3869784E-1,-1.1769515E-1,-1.647957E-1,-4.8992656E-2,-9.6342556E-2,-2.222002E-1,-9.762328E-2,-2.6061937E-2,4.9275372E-2,1.4721863E-1,5.58765E-2,1.9607536E-1,1.1353063E-1,8.333104E-3,-4.283328E-2,8.0643766E-2,1.9621758E-2,1.4771439E-1,8.6543135E-2,2.3614521E-1,1.5422086E-1,2.1123505E-1,2.9694933E-1,4.2568308E-1,3.317697E-1,4.565495E-1,3.516111E-1,5.6533784E-1,2.3226903E-1],"categories":[],"categories_nodes":[],"categories_segments":[],"categories_sizes":[],"default_left":[0,0,0,0,0,0,0,0,0,0,0,0,0,0,0,0,0,0,0,0,0,0,0,0,0,0,0,0,0,0,0,0,0,0,0,0,0,0,0,0,0,0,0,0,0,0,0,0,0,0,0,0,0,0,0,0,0,0,0,0,0,0,0],"id":6,"left_children":[1,3,5,7,9,11,13,15,17,19,21,23,25,27,29,31,33,35,37,39,41,43,45,47,49,51,53,55,57,59,61,-1,-1,-1,-1,-1,-1,-1,-1,-1,-1,-1,-1,-1,-1,-1,-1,-1,-1,-1,-1,-1,-1,-1,-1,-1,-1,-1,-1,-1,-1,-1,-1],"loss_changes":[1.1836961E4,3.9137866E3,5.3779023E3,1.7160479E3,7.8604236E2,9.6969116E2,4.9696484E2,3.5226953E2,1.9861365E2,1.17758354E2,1.3128967E2,2.4431058E2,1.1655432E2,1.21740234E2,4.326465E1,7.168359E1,4.025122E1,4.3572876E1,3.9480072E1,2.5121399E1,2.9684956E1,4.456781E1,4.2756226E1,6.3398804E1,7.811902E1,4.4019653E1,3.4407715E1,8.289844E1,4.718994E0,3.2651367E1,9.193115E-1,0E0,0E0,0E0,0E0,0E0,0E0,0E0,0E0,0E0,0E0,0E0,0E0,0E0,0E0,0E0,0E0,0E0,0E0,0E0,0E0,0E0,0E0,0E0,0E0,0E0,0E0,0E0,0E0,0E0,0E0,0E0,0E0],"parents":[2147483647,0,0,1,1,2,2,3,3,4,4,5,5,6,6,7,7,8,8,9,9,10,10,11,11,12,12,13,13,14,14,15,15,16,16,17,17,18,18,19,19,20,20,21,21,22,22,23,23,24,24,25,25,26,26,27,27,28,28,29,29,30,30],"right_children":[2,4,6,8,10,12,14,16,18,20,22,24,26,28,30,32,34,36,38,40,42,44,46,48,50,52,54,56,58,60,62,-1,-1,-1,-1,-1,-1,-1,-1,-1,-1,-1,-1,-1,-1,-1,-1,-1,-1,-1,-1,-1,-1,-1,-1,-1,-1,-1,-1,-1,-1,-1,-1],"split_conditions":[1.5190953E-1,1.0283233E0,9.2902315E-1,-7.7660406E-1,-8.784663E-1,1.1235187E0,1.1431075E0,-1.309422E0,-2.3595059E-1,-1.4543798E0,-3.4956616E-1,6.377141E-1,1.6367477E0,2.4235759E0,1.8874855E0,-1.9676088E0,2E0,2E0,2E0,-2.1164844E0,1.8795213E0,-1.8023849E0,2E0,2E0,2E0,2E0,2E0,4.3790737E-1,2E0,2E0,-7.524334E-1,-3.785436E-1,-2.8791317E-1,-1.8955347E-1,-2.3869784E-1,-1.1769515E-1,-1.647957E-1,-4.8992656E-2,-9.6342556E-2,-2.222002E-1,-9.762328E-2,-2.6061937E-2,4.9275372E-2,1.4721863E-1,5.58765E-2,1.9607536E-1,1.1353063E-1,8.333104E-3,-4.283328E-2,8.0643766E-2,1.9621758E-2,1.4771439E-1,8.6543135E-2,2.3614521E-1,1.5422086E-1,2.1123505E-1,2.9694933E-1,4.2568308E-1,3.317697E-1,4.565495E-1,3.516111E-1,5.6533784E-1,2.3226903E-1],"split_indices":[6,4,4,6,6,6,6,6,6,6,6,6,6,7,6,6,3,3,3,6,7,5,3,3,3,3,3,6,3,3,5,0,0,0,0,0,0,0,0,0,0,0,0,0,0,0,0,0,0,0,0,0,0,0,0,0,0,0,0,0,0,0,0],"split_type":[0,0,0,0,0,0,0,0,0,0,0,0,0,0,0,0,0,0,0,0,0,0,0,0,0,0,0,0,0,0,0,0,0,0,0,0,0,0,0,0,0,0,0,0,0,0,0,0,0,0,0,0,0,0,0,0,0,0,0,0,0,0,0],"sum_hessian":[8E3,4.237E3,3.763E3,3.176E3,1.061E3,2.825E3,9.38E2,1.466E3,1.71E3,4.52E2,6.09E2,2.03E3,7.95E2,6.69E2,2.69E2,6.35E2,8.31E2,9.17E2,7.93E2,1.77E2,2.75E2,2.97E2,3.12E2,1.08E3,9.5E2,5.38E2,2.57E2,5.72E2,9.7E1,2.23E2,4.6E1,1.21E2,5.14E2,5.57E2,2.74E2,6.11E2,3.06E2,5.25E2,2.68E2,1.8E1,1.59E2,2.06E2,6.9E1,7E1,2.27E2,2.16E2,9.6E1,7.15E2,3.65E2,6.36E2,3.14E2,3.53E2,1.85E2,1.71E2,8.6E1,1.77E2,3.95E2,6.2E1,3.5E1,1.59E2,6.4E1,4.4E1,2E0],"tree_param":{"num_deleted":"0","num_feature":"10","num_nodes":"63","size_leaf_vector":"1"}},{"base_weights":[1.4555807E-3,-1.2358243E0,9.736629E-1,-1.7495221E0,2.4001577E-1,3.6550763E-1,2.858443E0,-2.6343746E0,-1.3409878E0,-6.8360204E-1,7.543053E-1,-1.1582097E-1,1.0881188E0,2.2487254E0,3.6988842E0,-3.168114E0,-2.4109013E0,-1.6457798E0,-9.779913E-1,-1.2832884E0,-4.387346E-1,1.0672917E0,2.4144275E-1,-4.5133635E-1,1.743277E-1,8.1826985E-1,1.7124538E0,2.1260736E0,3.2419617E0,3.300326E0,4.3609133E0,-2.888238E-1,-3.6721644E-1,-2.1996705E-1,-2.8035033E-1,-1.4849582E-1,-1.9623439E-1,-1.2235135E-1,-8.418038E-2,-1.4381348E-1,-1.053265E-2,-1.7488474E-2,-8.960863E-2,6.3645095E-2,1.4969966E-1,-7.3195845E-3,6.1540812E-2,-3.0323938E-2,-7.351289E-2,3.5137188E-2,-1.8072594E-2,9.9685416E-2,4.5964673E-2,1.9691649E-1,1.2332528E-1,1.736605E-1,2.4719596E-1,3.868116E-1,2.9004785E-1,3.8071534E-1,2.974076E-1,4.163981E-1,5.5505323E-1],"categories":[],"categories_nodes":[],"categories_segments":[],"categories_sizes":[],"default_left":[0,0,0,0,0,0,0,0,0,0,0,0,0,0,0,0,0,0,0,0,0,0,0,0,0,0,0,0,0,0,0,0,0,0,0,0,0,0,0,0,0,0,0,0,0,0,0,0,0,0,0,0,0,0,0,0,0,0,0,0,0,0,0],"id":7,"left_children":[1,3,5,7,9,11,13,15,17,19,21,23,25,27,29,31,33,35,37,39,41,43,45,47,49,51,53,55,57,59,61,-1,-1,-1,-1,-1,-1,-1,-1,-1,-1,-1,-1,-1,-1,-1,-1,-1,-1,-1,-1,-1,-1,-1,-1,-1,-1,-1,-1,-1,-1,-1,-1],"loss_changes":[9.625548E3,2.6698164E3,5.135253E3,9.4068604E2,4.3277203E2,1.1788657E3,5.5176953E2,9.064551E1,1.9632251E2,4.7308E1,9.3645905E1,1.981846E2,2.2688391E2,7.0586426E1,1.0645361E2,2.325122E1,4.2347168E1,4.652002E1,2.635498E1,1.6994415E1,2.7959911E1,6.625101E1,2.6284101E1,3.945227E1,6.870682E1,6.025598E1,4.7762085E1,7.235791E1,3.3204346E0,3.662964E1,1.6480225E1,0E0,0E0,0E0,0E0,0E0,0E0,0E0,0E0,0E0,0E0,0E0,0E0,0E0,0E0,0E0,0E0,0E0,0E0,0E0,0E0,0E0,0E0,0E0,0E0,0E0,0E0,0E0,0E0,0E0,0E0,0E0,0E0],"parents":[2147483647,0,0,1,1,2,2,3,3,4,4,5,5,6,6,7,7,8,8,9,9,10,10,11,11,12,12,13,13,14,14,15,15,16,16,17,17,18,18,19,19,20,20,21,21,22,22,23,23,24,24,25,25,26,26,27,27,28,28,29,29,30,30],"right_children":[2,4,6,8,10,12,14,16,18,20,22,24,26,28,30,32,34,36,38,40,42,44,46,48,50,52,54,56,58,60,62,-1,-1,-1,-1,-1,-1,-1,-1,-1,-1,-1,-1,-1,-1,-1,-1,-1,-1,-1,-1,-1,-1,-1,-1,-1,-1,-1,-1,-1,-1,-1,-1],"split_conditions":[-1.14499435E-1,9.2902315E-1,3.3322176E-1,-1.1879709E0,-1.1370397E0,8.257675E-1,8.3752084E-1,-1.7442955E0,-5.846329E-1,-1.6855288E0,2E0,3.20374E-1,1.4408587E0,2.6475987E0,1.4212699E0,2E0,2E0,2E0,1E0,2.8660738E0,2E0,1E0,1.4632009E0,2E0,2E0,2E0,2E0,3.4779847E-1,-2.3750856E0,-1.7069348E0,2.0912101E0,-2.888238E-1,-3.6721644E-1,-2.1996705E-1,-2.8035033E-1,-1.4849582E-1,-1.9623439E-1,-1.2235135E-1,-8.418038E-2,-1.4381348E-1,-1.053265E-2,-1.7488474E-2,-8.960863E-2,6.3645095E-2,1.4969966E-1,-7.3195845E-3,6.1540812E-2,-3.0323938E-2,-7.351289E-2,3.5137188E-2,-1.8072594E-2,9.9685416E-2,4.5964673E-2,1.9691649E-1,1.2332528E-1,1.736605E-1,2.4719596E-1,3.868116E-1,2.9004785E-1,3.8071534E-1,2.974076E-1,4.163981E-1,5.5505323E-1],"split_indices":[6,4,4,6,6,6,6,6,6,6,3,6,6,7,6,3,3,3,3,7,3,3,7,3,3,3,3,6,5,5,6,0,0,0,0,0,0,0,0,0,0,0,0,0,0,0,0,0,0,0,0,0,0,0,0,0,0,0,0,0,0,0,0],"split_type":[0,0,0,0,0,0,0,0,0,0,0,0,0,0,0,0,0,0,0,0,0,0,0,0,0,0,0,0,0,0,0,0,0,0,0,0,0,0,0,0,0,0,0,0,0,0,0,0,0,0,0,0,0,0,0,0,0,0,0,0,0,0,0],"sum_hessian":[8E3,3.52E3,4.48E3,2.611E3,9.09E2,3.388E3,1.092E3,8.23E2,1.788E3,3.25E2,5.84E2,2.034E3,1.354E3,6.35E2,4.57E2,2.39E2,5.84E2,9.7E2,8.18E2,9.3E1,2.32E2,3.62E2,2.22E2,9.43E2,1.091E3,9.47E2,4.07E2,5.68E2,6.7E1,2.89E2,1.68E2,1.58E2,8.1E1,3.84E2,2E2,6.47E2,3.23E2,2.89E2,5.29E2,8.2E1,1.1E1,1.48E2,8.4E1,1.82E2,1.8E2,1.21E2,1.01E2,6.21E2,3.22E2,7.28E2,3.63E2,6.31E2,3.16E2,2.63E2,1.44E2,2.7E2,2.98E2,2E1,4.7E1,1.09E2,1.8E2,1.48E2,2E1],"tree_param":{"num_deleted":"0","num_feature":"10","num_nodes":"63","size_leaf_vector":"1"}},{"base_weights":[1.4880343E-3,-1.2149416E0,8.049522E-1,-1.6705902E0,9.583316E-2,2.6014364E-1,2.4829824E0,-2.3723407E0,-1.2937785E0,-7.1491194E-1,5.1372045E-1,-2.3359498E-1,8.937252E-1,1.9263799E0,3.3120482E0,-2.7400355E0,-2.1070738E0,-1.5505998E0,-1.0264273E0,-1.4036363E0,-5.516782E-1,1.099693E0,3.0742803E-1,-4.9471074E-1,5.7134006E-2,5.7621336E-1,1.3915967E0,1.5799522E0,2.289363E0,3.010606E0,4.0444694E0,-3.485578E-1,-2.591249E-1,-1.9220623E-1,-2.4552236E-1,-1.4119594E-1,-1.8193492E-1,-8.88715E-2,-1.3038135E-1,1.36954E-3,-1.5515605E-1,-2.8131604E-2,-1.0118071E-1,6.4630724E-2,1.478953E-1,5.0706654E-3,6.890277E-2,-3.5499003E-2,-7.655473E-2,2.0267824E-2,-2.189189E-2,2.2572545E-2,7.2867095E-2,1.2250165E-1,1.9539788E-1,1.8094277E-1,1.0294509E-1,1.9039671E-1,2.642228E-1,3.2609373E-1,2.4135986E-1,3.3473867E-1,4.3558174E-1],"categories":[],"categories_nodes":[],"categories_segments":[],"categories_sizes":[],"default_left":[0,0,0,0,0,0,0,0,0,0,0,0,0,0,0,0,0,0,0,0,0,0,0,0,0,0,0,0,0,0,0,0,0,0,0,0,0,0,0,0,0,0,0,0,0,0,0,0,0,0,0,0,0,0,0,0,0,0,0,0,0,0,0],"id":8,"left_children":[1,3,5,7,9,11,13,15,17,19,21,23,25,27,29,31,33,35,37,39,41,43,45,47,49,51,53,55,57,59,61,-1,-1,-1,-1,-1,-1,-1,-1,-1,-1,-1,-1,-1,-1,-1,-1,-1,-1,-1,-1,-1,-1,-1,-1,-1,-1,-1,-1,-1,-1,-1,-1],"loss_changes":[7.8208164E3,1.9012153E3,4.4049087E3,6.215088E2,2.788609E2,1.1385742E3,5.38604E2,7.459717E1,1.0407837E2,3.0704117E1,6.5300674E1,1.5534816E2,2.5117786E2,8.55376E1,9.225391E1,2.890503E1,2.6391846E1,2.6605347E1,2.77583E1,1.1133102E1,2.8078888E1,2.3289246E1,3.944487E1,4.052133E1,3.897676E1,5.1934235E1,5.5688965E1,4.4372803E1,4.1750977E1,4.279297E1,1.4719238E1,0E0,0E0,0E0,0E0,0E0,0E0,0E0,0E0,0E0,0E0,0E0,0E0,0E0,0E0,0E0,0E0,0E0,0E0,0E0,0E0,0E0,0E0,0E0,0E0,0E0,0E0,0E0,0E0,0E0,0E0,0E0,0E0],"parents":[2147483647,0,0,1,1,2,2,3,3,4,4,5,5,6,6,7,7,8,8,9,9,10,10,11,11,12,12,13,13,14,14,15,15,16,16,17,17,18,18,19,19,20,20,21,21,22,22,23,23,24,24,25,25,26,26,27,27,28,28,29,29,30,30],"right_children":[2,4,6,8,10,12,14,16,18,20,22,24,26,28,30,32,34,36,38,40,42,44,46,48,50,52,54,56,58,60,62,-1,-1,-1,-1,-1,-1,-1,-1,-1,-1,-1,-1,-1,-1,-1,-1,-1,-1,-1,-1,-1,-1,-1,-1,-1,-1,-1,-1,-1,-1,-1,-1],"split_conditions":[-2.4770392E-1,9.2902315E-1,3.3322176E-1,-1.1879709E0,-1.2153953E0,6.964808E-1,8.0617857E-1,-1.6071732E0,-6.943307E-1,-1.8657466E0,-1.8023849E0,2.6160732E-1,1.2567232E0,1.4442774E0,1.5152966E0,-2.2183466E0,2E0,2E0,2E0,-2.2796357E0,2E0,-7.2567296E-1,-6.081396E-1,2E0,2E0,1E0,1.84439E0,2E0,2.8511402E-1,2E0,1.5248245E0,-3.485578E-1,-2.591249E-1,-1.9220623E-1,-2.4552236E-1,-1.4119594E-1,-1.8193492E-1,-8.88715E-2,-1.3038135E-1,1.36954E-3,-1.5515605E-1,-2.8131604E-2,-1.0118071E-1,6.4630724E-2,1.478953E-1,5.0706654E-3,6.890277E-2,-3.5499003E-2,-7.655473E-2,2.0267824E-2,-2.189189E-2,2.2572545E-2,7.2867095E-2,1.2250165E-1,1.9539788E-1,1.8094277E-1,1.0294509E-1,1.9039671E-1,2.642228E-1,3.2609373E-1,2.4135986E-1,3.3473867E-1,4.3558174E-1],"split_indices":[6,4,4,6,6,6,6,6,6,6,5,6,6,7,6,6,3,3,3,5,3,6,6,3,3,3,6,3,6,3,4,0,0,0,0,0,0,0,0,0,0,0,0,0,0,0,0,0,0,0,0,0,0,0,0,0,0,0,0,0,0,0,0],"split_type":[0,0,0,0,0,0,0,0,0,0,0,0,0,0,0,0,0,0,0,0,0,0,0,0,0,0,0,0,0,0,0,0,0,0,0,0,0,0,0,0,0,0,0,0,0,0,0,0,0,0,0,0,0,0,0,0,0,0,0,0,0,0,0],"sum_hessian":[8E3,3.182E3,4.818E3,2.361E3,8.21E2,3.638E3,1.18E3,8.23E2,1.538E3,2.79E2,5.42E2,2.045E3,1.593E3,7.08E2,4.72E2,3.41E2,4.82E2,7.82E2,7.56E2,5.2E1,2.27E2,1.4E2,4.02E2,1.077E3,9.68E2,9.74E2,6.19E2,3.65E2,3.43E2,3.38E2,1.34E2,5.3E1,2.88E2,3.19E2,1.63E2,5.2E2,2.62E2,5.08E2,2.48E2,5E0,4.7E1,1.44E2,8.3E1,6.5E1,7.5E1,2.41E2,1.61E2,7.12E2,3.65E2,6.34E2,3.34E2,2.96E2,6.78E2,4.8E2,1.39E2,2.56E2,1.09E2,1.67E2,1.76E2,2.35E2,1.03E2,4.5E1,8.9E1],"tree_param":{"num_deleted":"0","num_feature":"10","num_nodes":"63","size_leaf_vector":"1"}},{"base_weights":[1.4381898E-3,-9.719541E-1,8.182283E-1,-1.384656E0,2.3007557E-1,2.3497546E0,3.2606894E-1,-2.0367618E0,-9.978506E-1,-4.7305456E-1,7.132209E-1,1.8926879E0,3.0791013E0,-3.91329E-2,9.3417937E-1,-2.467809E0,-1.813695E0,-1.2574252E0,-7.404359E-1,-9.2028046E-1,-1.9743934E-1,9.874975E-1,2.414646E-1,2.1330974E0,1.399823E0,2.863159E0,3.8727958E0,-2.7694616E-1,2.3715083E-1,7.0627636E-1,1.3949573E0,-2.2314632E-1,-2.891957E-1,-1.6592517E-1,-2.1077882E-1,-1.1320328E-1,-1.4977485E-1,-6.174497E-2,-9.998157E-2,-4.251788E-2,-1.2454611E-1,-3.765124E-2,3.617088E-2,8.565968E-2,2.2615543E-1,1.1032942E-2,8.752547E-2,1.7145185E-1,2.5234672E-1,2.6063892E-1,1.284233E-1,3.1103352E-1,2.3127559E-1,3.2823476E-1,4.334968E-1,-5.6919407E-2,-1.3005092E-2,3.9181437E-2,-8.185919E-3,8.722483E-2,3.7238203E-2,1.6255537E-1,9.654927E-2],"categories":[],"categories_nodes":[],"categories_segments":[],"categories_sizes":[],"default_left":[0,0,0,0,0,0,0,0,0,0,0,0,0,0,0,0,0,0,0,0,0,0,0,0,0,0,0,0,0,0,0,0,0,0,0,0,0,0,0,0,0,0,0,0,0,0,0,0,0,0,0,0,0,0,0,0,0,0,0,0,0,0,0],"id":9,"left_children":[1,3,5,7,9,11,13,15,17,19,21,23,25,27,29,31,33,35,37,39,41,43,45,47,49,51,53,55,57,59,61,-1,-1,-1,-1,-1,-1,-1,-1,-1,-1,-1,-1,-1,-1,-1,-1,-1,-1,-1,-1,-1,-1,-1,-1,-1,-1,-1,-1,-1,-1,-1,-1],"loss_changes":[6.362048E3,1.8115061E3,3.2788218E3,6.835508E2,3.1763028E2,3.4686768E2,7.315781E2,9.2734375E1,1.1319458E2,4.6781227E1,7.144458E1,7.438745E1,5.849707E1,1.3535008E2,1.2881042E2,2.7830566E1,2.693457E1,2.3888916E1,2.6816772E1,2.2815094E1,2.3866611E1,5.643396E1,1.6941433E1,6.707959E1,2.6917145E1,3.674951E1,8.693726E0,4.7449303E1,4.7052353E1,4.5615936E1,3.8835938E1,0E0,0E0,0E0,0E0,0E0,0E0,0E0,0E0,0E0,0E0,0E0,0E0,0E0,0E0,0E0,0E0,0E0,0E0,0E0,0E0,0E0,0E0,0E0,0E0,0E0,0E0,0E0,0E0,0E0,0E0,0E0,0E0],"parents":[2147483647,0,0,1,1,2,2,3,3,4,4,5,5,6,6,7,7,8,8,9,9,10,10,11,11,12,12,13,13,14,14,15,15,16,16,17,17,18,18,19,19,20,20,21,21,22,22,23,23,24,24,25,25,26,26,27,27,28,28,29,29,30,30],"right_children":[2,4,6,8,10,12,14,16,18,20,22,24,26,28,30,32,34,36,38,40,42,44,46,48,50,52,54,56,58,60,62,-1,-1,-1,-1,-1,-1,-1,-1,-1,-1,-1,-1,-1,-1,-1,-1,-1,-1,-1,-1,-1,-1,-1,-1,-1,-1,-1,-1,-1,-1,-1,-1],"split_conditions":[-6.356832E-2,1.0283233E0,-6.5698326E-1,-1.0626019E0,-1.027342E0,9.080408E-1,8.845342E-1,-1.6071732E0,-5.4153734E-1,-1.5562421E0,2E0,2E0,1.6602544E0,4.3790737E-1,1.4408587E0,2E0,2E0,2E0,2E0,-1.7069348E0,1.8795211E0,2.5451884E0,2.3403678E0,1E0,-2.2796357E0,2E0,1.506455E0,1E0,2E0,2E0,2E0,-2.2314632E-1,-2.891957E-1,-1.6592517E-1,-2.1077882E-1,-1.1320328E-1,-1.4977485E-1,-6.174497E-2,-9.998157E-2,-4.251788E-2,-1.2454611E-1,-3.765124E-2,3.617088E-2,8.565968E-2,2.2615543E-1,1.1032942E-2,8.752547E-2,1.7145185E-1,2.5234672E-1,2.6063892E-1,1.284233E-1,3.1103352E-1,2.3127559E-1,3.2823476E-1,4.334968E-1,-5.6919407E-2,-1.3005092E-2,3.9181437E-2,-8.185919E-3,8.722483E-2,3.7238203E-2,1.6255537E-1,9.654927E-2],"split_indices":[6,4,5,6,6,6,6,6,6,6,3,3,6,6,6,3,3,3,3,5,7,7,7,3,5,3,7,3,3,3,3,0,0,0,0,0,0,0,0,0,0,0,0,0,0,0,0,0,0,0,0,0,0,0,0,0,0,0,0,0,0,0,0],"split_type":[0,0,0,0,0,0,0,0,0,0,0,0,0,0,0,0,0,0,0,0,0,0,0,0,0,0,0,0,0,0,0,0,0,0,0,0,0,0,0,0,0,0,0,0,0,0,0,0,0,0,0,0,0,0,0,0,0,0,0,0,0,0,0],"sum_hessian":[8E3,3.65E3,4.35E3,2.717E3,9.33E2,1.057E3,3.293E3,1.01E3,1.707E3,3.8E2,5.53E2,6.52E2,4.05E2,2.058E3,1.235E3,3.41E2,6.69E2,8.48E2,8.59E2,1.44E2,2.36E2,3.49E2,2.04E2,4.36E2,2.16E2,3.22E2,8.3E1,1.106E3,9.52E2,8.28E2,4.07E2,2.23E2,1.18E2,4.43E2,2.26E2,5.61E2,2.87E2,5.85E2,2.74E2,5.8E1,8.6E1,1.79E2,5.7E1,3.18E2,3.1E1,1.7E2,3.4E1,2.13E2,2.23E2,1.7E1,1.99E2,2.19E2,1.03E2,4E1,4.3E1,3.69E2,7.37E2,6.41E2,3.11E2,5.52E2,2.76E2,2.63E2,1.44E2],"tree_param":{"num_deleted":"0","num_feature":"10","num_nodes":"63","size_leaf_vector":"1"}},{"base_weights":[1.4680079E-3,-7.5787276E-1,8.564321E-1,-1.1076348E0,3.7428248E-1,3.9954972E-1,2.2305462E0,-1.7368841E0,-7.253533E-1,-1.8669342E-1,9.714995E-1,1.577279E-1,1.0473512E0,1.914452E0,3.0314898E0,-2.1410995E0,-1.5086199E0,-1.0258218E0,-5.058815E-1,-6.505447E-1,1.0800945E-1,7.688766E-1,1.5131761E0,-8.448E-2,3.795112E-1,9.328338E-1,1.7028922E0,1.4813751E0,2.2244327E0,2.7639382E0,3.6230485E0,-1.9222555E-1,-2.5584063E-1,-1.7552342E-1,-1.3759188E-1,-1.2767772E-1,-8.989799E-2,-7.602825E-2,-3.7622284E-2,-2.132043E-1,-5.6999512E-2,7.9141356E-2,2.0383361E-3,9.615383E-2,3.9304297E-2,1.7844896E-1,9.9030726E-2,-3.4513466E-2,5.160912E-3,4.529409E-3,5.2300435E-2,1.0922966E-1,6.1184235E-2,1.5172906E-1,2.4900751E-1,1.6989349E-1,9.83166E-2,2.8367734E-1,2.0558272E-1,2.9936802E-1,2.1143393E-1,3.9263567E-1,2.9303676E-1],"categories":[],"categories_nodes":[],"categories_segments":[],"categories_sizes":[],"default_left":[0,0,0,0,0,0,0,0,0,0,0,0,0,0,0,0,0,0,0,0,0,0,0,0,0,0,0,0,0,0,0,0,0,0,0,0,0,0,0,0,0,0,0,0,0,0,0,0,0,0,0,0,0,0,0,0,0,0,0,0,0,0,0],"id":10,"left_children":[1,3,5,7,9,11,13,15,17,19,21,23,25,27,29,31,33,35,37,39,41,43,45,47,49,51,53,55,57,59,61,-1,-1,-1,-1,-1,-1,-1,-1,-1,-1,-1,-1,-1,-1,-1,-1,-1,-1,-1,-1,-1,-1,-1,-1,-1,-1,-1,-1,-1,-1,-1,-1],"loss_changes":[5.194971E3,1.6785986E3,2.36218E3,7.776426E2,3.3554074E2,4.42535E2,2.3192676E2,1.09613525E2,1.324248E2,7.07433E1,5.20683E1,1.1063675E2,5.6065857E1,8.745459E1,3.1769775E1,3.517383E1,2.3274902E1,2.590918E1,3.8207764E1,2.2770897E1,1.8967106E1,2.5327164E1,1.681662E1,3.495799E1,5.1531006E1,3.290985E1,1.2731415E1,2.9220825E1,3.4639893E1,2.1429077E1,5.092041E0,0E0,0E0,0E0,0E0,0E0,0E0,0E0,0E0,0E0,0E0,0E0,0E0,0E0,0E0,0E0,0E0,0E0,0E0,0E0,0E0,0E0,0E0,0E0,0E0,0E0,0E0,0E0,0E0,0E0,0E0,0E0,0E0],"parents":[2147483647,0,0,1,1,2,2,3,3,4,4,5,5,6,6,7,7,8,8,9,9,10,10,11,11,12,12,13,13,14,14,15,15,16,16,17,17,18,18,19,19,20,20,21,21,22,22,23,23,24,24,25,25,26,26,27,27,28,28,29,29,30,30],"right_children":[2,4,6,8,10,12,14,16,18,20,22,24,26,28,30,32,34,36,38,40,42,44,46,48,50,52,54,56,58,60,62,-1,-1,-1,-1,-1,-1,-1,-1,-1,-1,-1,-1,-1,-1,-1,-1,-1,-1,-1,-1,-1,-1,-1,-1,-1,-1,-1,-1,-1,-1,-1,-1],"split_conditions":[1.5190953E-1,6.981446E-1,9.2902315E-1,-9.411508E-1,-6.747418E-1,1.1431075E0,1.1587787E0,-1.5092287E0,-4.4751063E-1,-1.3525176E0,2.0169666E0,5.9461856E-1,1.8874855E0,1.2577441E0,1.9253364E0,2E0,1E0,1E0,1E0,-2.2183466E0,-2.0887353E0,2E0,2E0,1E0,1E0,2E0,2.2087433E0,2E0,-2.0887353E0,2E0,2E0,-1.9222555E-1,-2.5584063E-1,-1.7552342E-1,-1.3759188E-1,-1.2767772E-1,-8.989799E-2,-7.602825E-2,-3.7622284E-2,-2.132043E-1,-5.6999512E-2,7.9141356E-2,2.0383361E-3,9.615383E-2,3.9304297E-2,1.7844896E-1,9.9030726E-2,-3.4513466E-2,5.160912E-3,4.529409E-3,5.2300435E-2,1.0922966E-1,6.1184235E-2,1.5172906E-1,2.4900751E-1,1.6989349E-1,9.83166E-2,2.8367734E-1,2.0558272E-1,2.9936802E-1,2.1143393E-1,3.9263567E-1,2.9303676E-1],"split_indices":[6,7,4,6,6,6,6,6,6,6,7,6,6,7,7,3,3,3,3,6,5,3,3,3,3,3,6,3,5,3,3,0,0,0,0,0,0,0,0,0,0,0,0,0,0,0,0,0,0,0,0,0,0,0,0,0,0,0,0,0,0,0,0],"split_type":[0,0,0,0,0,0,0,0,0,0,0,0,0,0,0,0,0,0,0,0,0,0,0,0,0,0,0,0,0,0,0,0,0,0,0,0,0,0,0,0,0,0,0,0,0,0,0,0,0,0,0,0,0,0,0,0,0,0,0,0,0,0,0],"sum_hessian":[8E3,4.237E3,3.763E3,3.237E3,1E3,2.825E3,9.38E2,1.222E3,2.015E3,5.16E2,4.84E2,2.058E3,7.67E2,6.75E2,2.63E2,4.38E2,7.84E2,8.49E2,1.166E3,2E2,3.16E2,3.54E2,1.3E2,9.84E2,1.074E3,6.55E2,1.12E2,2.84E2,3.91E2,1.85E2,7.8E1,2.91E2,1.47E2,2.7E2,5.14E2,2.82E2,5.67E2,3.92E2,7.74E2,9E0,1.91E2,3.5E1,2.81E2,2.33E2,1.21E2,8.4E1,4.6E1,3.37E2,6.47E2,3.23E2,7.51E2,4.36E2,2.19E2,9.3E1,1.9E1,1.96E2,8.8E1,8.1E1,3.1E2,1.34E2,5.1E1,5.1E1,2.7E1],"tree_param":{"num_deleted":"0","num_feature":"10","num_nodes":"63","size_leaf_vector":"1"}},{"base_weights":[1.5317409E-3,-8.856892E-1,5.973984E-1,-1.2219248E0,7.259588E-2,1.97806E-1,1.8339489E0,-1.7555994E0,-9.485554E-1,-4.9924558E-1,3.919252E-1,-1.4070326E-1,6.899447E-1,1.3682768E0,2.387043E0,-2.5505583E0,-1.6704316E0,-1.1374017E0,-7.528983E-1,-2.8417614E-1,-8.6288476E-1,2.821471E-1,1.0541034E0,-3.3798686E-1,8.67988E-2,4.4331223E-1,1.0293438E0,9.14972E-1,1.5475879E0,2.0863583E0,2.8431933E0,-3.046973E-1,-2.2628485E-1,-1.4967792E-1,-1.9998695E-1,-1.01860896E-1,-1.3681093E-1,-6.321418E-2,-9.919705E-2,-6.6975124E-2,1.2518448E-2,-1.19283915E-1,-5.1752176E-2,4.966252E-2,-5.971836E-3,1.5688755E-1,8.011104E-2,-2.0942163E-2,-5.8960732E-2,2.271531E-2,-1.8508332E-2,5.879259E-2,1.5903888E-2,9.562563E-2,1.9419895E-1,1.098837E-1,4.7837026E-2,1.7408179E-1,1.1181759E-1,1.8688285E-1,2.6599595E-1,3.3051834E-1,2.5250188E-1],"categories":[],"categories_nodes":[],"categories_segments":[],"categories_sizes":[],"default_left":[0,0,0,0,0,0,0,0,0,0,0,0,0,0,0,0,0,0,0,0,0,0,0,0,0,0,0,0,0,0,0,0,0,0,0,0,0,0,0,0,0,0,0,0,0,0,0,0,0,0,0,0,0,0,0,0,0,0,0,0,0,0,0],"id":11,"left_children":[1,3,5,7,9,11,13,15,17,19,21,23,25,27,29,31,33,35,37,39,41,43,45,47,49,51,53,55,57,59,61,-1,-1,-1,-1,-1,-1,-1,-1,-1,-1,-1,-1,-1,-1,-1,-1,-1,-1,-1,-1,-1,-1,-1,-1,-1,-1,-1,-1,-1,-1,-1,-1],"loss_changes":[4.230381E3,1.0359922E3,2.3649712E3,3.4555347E2,1.5285406E2,6.02999E2,2.9782202E2,5.0241943E1,5.737549E1,2.3217087E1,3.873854E1,9.6302155E1,1.2301129E2,5.0360962E1,6.717285E1,3.9597473E0,3.876831E1,2.0531616E1,2.1804535E1,3.00733E1,1.203157E1,3.3904724E1,8.640923E0,3.7046234E1,3.8087387E1,3.509651E1,3.949884E1,1.4164825E1,3.580725E1,3.5581055E1,2.2375854E1,0E0,0E0,0E0,0E0,0E0,0E0,0E0,0E0,0E0,0E0,0E0,0E0,0E0,0E0,0E0,0E0,0E0,0E0,0E0,0E0,0E0,0E0,0E0,0E0,0E0,0E0,0E0,0E0,0E0,0E0,0E0,0E0],"parents":[2147483647,0,0,1,1,2,2,3,3,4,4,5,5,6,6,7,7,8,8,9,9,10,10,11,11,12,12,13,13,14,14,15,15,16,16,17,17,18,18,19,19,20,20,21,21,22,22,23,23,24,24,25,25,26,26,27,27,28,28,29,29,30,30],"right_children":[2,4,6,8,10,12,14,16,18,20,22,24,26,28,30,32,34,36,38,40,42,44,46,48,50,52,54,56,58,60,62,-1,-1,-1,-1,-1,-1,-1,-1,-1,-1,-1,-1,-1,-1,-1,-1,-1,-1,-1,-1,-1,-1,-1,-1,-1,-1,-1,-1,-1,-1,-1,-1],"split_conditions":[-2.3595059E-1,3.3322176E-1,9.2902315E-1,-1.1997242E0,-1.1879709E0,7.552475E-1,7.1998745E-1,-2.1164844E0,-6.943307E-1,2E0,2.3403678E0,3.086207E-1,1.2567232E0,1.0847278E0,1.3154899E0,-2.4299068E0,2E0,2E0,2E0,1E0,1.3875064E0,2E0,-2.2796357E0,2E0,2E0,2E0,2.0912101E0,2E0,2E0,1.9762421E0,-1.7069348E0,-3.046973E-1,-2.2628485E-1,-1.4967792E-1,-1.9998695E-1,-1.01860896E-1,-1.3681093E-1,-6.321418E-2,-9.919705E-2,-6.6975124E-2,1.2518448E-2,-1.19283915E-1,-5.1752176E-2,4.966252E-2,-5.971836E-3,1.5688755E-1,8.011104E-2,-2.0942163E-2,-5.8960732E-2,2.271531E-2,-1.8508332E-2,5.879259E-2,1.5903888E-2,9.562563E-2,1.9419895E-1,1.098837E-1,4.7837026E-2,1.7408179E-1,1.1181759E-1,1.8688285E-1,2.6599595E-1,3.3051834E-1,2.5250188E-1],"split_indices":[6,4,4,6,6,6,6,6,6,3,7,6,6,7,6,6,3,3,3,3,7,3,5,3,3,3,6,3,3,7,5,0,0,0,0,0,0,0,0,0,0,0,0,0,0,0,0,0,0,0,0,0,0,0,0,0,0,0,0,0,0,0,0],"split_type":[0,0,0,0,0,0,0,0,0,0,0,0,0,0,0,0,0,0,0,0,0,0,0,0,0,0,0,0,0,0,0,0,0,0,0,0,0,0,0,0,0,0,0,0,0,0,0,0,0,0,0,0,0,0,0,0,0,0,0,0,0,0,0],"sum_hessian":[8E3,3.214E3,4.786E3,2.379E3,8.35E2,3.618E3,1.168E3,8.04E2,1.575E3,2.99E2,5.36E2,2.144E3,1.474E3,6.36E2,5.32E2,7.5E1,7.29E2,7.99E2,7.76E2,1.89E2,1.1E2,4.61E2,7.5E1,1.148E3,9.96E2,8.55E2,6.19E2,1.82E2,4.54E2,3.24E2,2.08E2,2.4E1,5.1E1,4.81E2,2.48E2,5.31E2,2.68E2,5.18E2,2.58E2,9.7E1,9.2E1,5.5E1,5.5E1,2.83E2,1.78E2,2.3E1,5.2E1,7.61E2,3.87E2,6.57E2,3.39E2,5.66E2,2.89E2,5.75E2,4.4E1,1.27E2,5.5E1,3.11E2,1.43E2,2.38E2,8.6E1,8.1E1,1.27E2],"tree_param":{"num_deleted":"0","num_feature":"10","num_nodes":"63","size_leaf_vector":"1"}},{"base_weights":[1.4464649E-3,-5.7819957E-1,7.459015E-1,-8.7486315E-1,3.0809906E-1,3.696415E-1,1.8807299E0,-1.3787899E0,-5.412944E-1,-2.0120904E-1,7.9053247E-1,1.8762489E-1,9.0343976E-1,1.6354837E0,2.5052347E0,-1.6922969E0,-1.1486435E0,-7.707202E-1,-3.60786E-1,-6.792501E-1,-1.526564E-2,6.861289E-1,1.6517408E0,-1.0431029E-1,3.1953672E-1,7.461738E-1,1.238932E0,1.1498407E0,1.8462242E0,2.3836637E0,3.6826962E-1,-1.5134151E-1,-2.0275061E-1,-1.3927254E-1,-1.01516746E-1,-1.00025855E-1,-6.505506E-2,-6.00441E-2,-2.3306487E-2,-2.485362E-2,-9.5908895E-2,1.7400112E-2,-3.1504374E-2,8.427819E-2,3.6239784E-2,1.9445418E-1,1.0309873E-1,-2.00741E-2,1.4759039E-2,7.028165E-2,-6.9922144E-3,4.2269938E-2,9.070554E-2,1.4360297E-1,8.43965E-2,1.338431E-1,7.198026E-2,2.0638435E-1,1.4160872E-1,2.6122972E-1,1.7712627E-1],"categories":[],"categories_nodes":[],"categories_segments":[],"categories_sizes":[],"default_left":[0,0,0,0,0,0,0,0,0,0,0,0,0,0,0,0,0,0,0,0,0,0,0,0,0,0,0,0,0,0,0,0,0,0,0,0,0,0,0,0,0,0,0,0,0,0,0,0,0,0,0,0,0,0,0,0,0,0,0,0,0],"id":12,"left_children":[1,3,5,7,9,11,13,15,17,19,21,23,25,27,29,31,33,35,37,39,41,43,45,47,49,51,53,55,57,59,-1,-1,-1,-1,-1,-1,-1,-1,-1,-1,-1,-1,-1,-1,-1,-1,-1,-1,-1,-1,-1,-1,-1,-1,-1,-1,-1,-1,-1,-1,-1],"loss_changes":[3.4530256E3,1.183203E3,1.4950525E3,5.658994E2,2.775625E2,2.5555603E2,1.2945605E2,9.4884766E1,8.379089E1,4.887835E1,5.1016388E1,7.566638E1,3.4373047E1,6.2252075E1,2.6149292E1,3.0870483E1,2.3900024E1,2.3981384E1,3.4693115E1,1.8323326E1,2.2579813E1,2.6014862E1,9.26416E0,1.4895695E1,2.0201375E2,2.3451416E1,1.5291626E1,1.4689087E1,3.7983154E1,2.6736328E1,0E0,0E0,0E0,0E0,0E0,0E0,0E0,0E0,0E0,0E0,0E0,0E0,0E0,0E0,0E0,0E0,0E0,0E0,0E0,0E0,0E0,0E0,0E0,0E0,0E0,0E0,0E0,0E0,0E0,0E0,0E0],"parents":[2147483647,0,0,1,1,2,2,3,3,4,4,5,5,6,6,7,7,8,8,9,9,10,10,11,11,12,12,13,13,14,14,15,15,16,16,17,17,18,18,19,19,20,20,21,21,22,22,23,23,24,24,25,25,26,26,27,27,28,28,29,29],"right_children":[2,4,6,8,10,12,14,16,18,20,22,24,26,28,30,32,34,36,38,40,42,44,46,48,50,52,54,56,58,60,-1,-1,-1,-1,-1,-1,-1,-1,-1,-1,-1,-1,-1,-1,-1,-1,-1,-1,-1,-1,-1,-1,-1,-1,-1,-1,-1,-1,-1,-1,-1],"split_conditions":[2.3810066E-1,1.0283233E0,9.2902315E-1,-8.432063E-1,-6.943307E-1,1.2136276E0,1.2136276E0,-1.379942E0,-3.221417E-1,-1.5248998E0,2.5451884E0,1E0,1.7072678E0,1.0847278E0,2.0912101E0,2E0,1E0,1E0,1E0,-1.7069348E0,2E0,2E0,2E0,8.962875E-1,2E0,1E0,2E0,2E0,2E0,2E0,3.6826962E-1,-1.5134151E-1,-2.0275061E-1,-1.3927254E-1,-1.01516746E-1,-1.00025855E-1,-6.505506E-2,-6.00441E-2,-2.3306487E-2,-2.485362E-2,-9.5908895E-2,1.7400112E-2,-3.1504374E-2,8.427819E-2,3.6239784E-2,1.9445418E-1,1.0309873E-1,-2.00741E-2,1.4759039E-2,7.028165E-2,-6.9922144E-3,4.2269938E-2,9.070554E-2,1.4360297E-1,8.43965E-2,1.338431E-1,7.198026E-2,2.0638435E-1,1.4160872E-1,2.6122972E-1,1.7712627E-1],"split_indices":[6,4,4,6,6,6,6,6,6,6,7,3,6,7,6,3,3,3,3,5,3,3,3,6,3,3,3,3,3,3,0,0,0,0,0,0,0,0,0,0,0,0,0,0,0,0,0,0,0,0,0,0,0,0,0,0,0,0,0,0,0],"split_type":[0,0,0,0,0,0,0,0,0,0,0,0,0,0,0,0,0,0,0,0,0,0,0,0,0,0,0,0,0,0,0,0,0,0,0,0,0,0,0,0,0,0,0,0,0,0,0,0,0,0,0,0,0,0,0,0,0,0,0,0,0],"sum_hessian":[8E3,4.498E3,3.502E3,3.37E3,1.128E3,2.631E3,8.71E2,1.341E3,2.029E3,5.49E2,5.79E2,1.963E3,6.68E2,6.28E2,2.43E2,5.65E2,7.76E2,8.92E2,1.137E3,1.53E2,3.96E2,5.18E2,6.1E1,6.11E2,1.352E3,4.57E2,2.11E2,1.92E2,4.36E2,2.23E2,2E1,3.72E2,1.93E2,2.71E2,5.05E2,3.04E2,5.88E2,3.94E2,7.43E2,6.1E1,9.2E1,2.43E2,1.53E2,3.48E2,1.7E2,4E1,2.1E1,4.42E2,1.69E2,6.81E2,6.71E2,1.53E2,3.04E2,1.39E2,7.2E1,1.32E2,6E1,2.87E2,1.49E2,1.6E2,6.3E1],"tree_param":{"num_deleted":"0","num_feature":"10","num_nodes":"61","size_leaf_vector":"1"}},{"base_weights":[1.4541828E-3,-6.715364E-1,5.235966E-1,-9.4549304E-1,1.1384173E-1,1.5528198E0,2.0066804E-1,-1.403807E0,-7.135263E-1,-2.6718727E-1,4.8960754E-1,1.1149287E0,1.908942E0,-3.0633992E-2,6.5768164E-1,-1.9133842E0,-1.300942E0,-8.92106E-1,-5.563227E-1,-7.6517075E-1,-1.3531715E-1,4.0344086E-1,1.2872719E0,2.4410417E0,1.0674123E0,1.7379063E0,2.4975643E0,-1.8881744E-1,1.8418038E-1,5.5026335E-1,1.1237658E0,-2.596837E-1,-1.7550533E-1,-1.1642667E-1,-1.5634482E-1,-7.6891564E-2,-1.12673126E-1,-7.673644E-2,-4.4011276E-2,-1.7482804E-1,-6.273211E-2,-2.3510903E-2,4.5452196E-2,5.7299715E-2,1.1455723E-2,1.592825E-1,7.5742684E-2,2.5193906E-1,6.329041E-2,1.2041973E-1,7.675763E-2,1.5558705E-1,2.2324668E-1,2.7503783E-1,1.8755245E-1,-6.920612E-3,-4.2039283E-2,-1.0586819E-2,3.1353813E-2,2.6962345E-2,6.8616025E-2,9.825596E-2,1.6353767E-1],"categories":[],"categories_nodes":[],"categories_segments":[],"categories_sizes":[],"default_left":[0,0,0,0,0,0,0,0,0,0,0,0,0,0,0,0,0,0,0,0,0,0,0,0,0,0,0,0,0,0,0,0,0,0,0,0,0,0,0,0,0,0,0,0,0,0,0,0,0,0,0,0,0,0,0,0,0,0,0,0,0,0,0],"id":13,"left_children":[1,3,5,7,9,11,13,15,17,19,21,23,25,27,29,31,33,35,37,39,41,43,45,47,49,51,53,55,57,59,61,-1,-1,-1,-1,-1,-1,-1,-1,-1,-1,-1,-1,-1,-1,-1,-1,-1,-1,-1,-1,-1,-1,-1,-1,-1,-1,-1,-1,-1,-1,-1,-1],"loss_changes":[2.8118782E3,7.523054E2,1.4973278E3,2.7456348E2,1.297066E2,1.6566602E2,3.627049E2,4.3114136E1,4.7874084E1,2.9447575E1,3.0822502E1,2.7955322E1,5.5259033E1,7.747538E1,5.7107635E1,1.1024902E1,2.4263184E1,2.2401001E1,2.2200897E1,1.1642265E1,2.1120295E1,2.0163933E1,5.916977E0,6.7211914E-1,1.8351868E1,3.8119385E1,1.5442749E1,3.6339745E1,3.6315067E1,3.5626648E1,1.39253235E1,0E0,0E0,0E0,0E0,0E0,0E0,0E0,0E0,0E0,0E0,0E0,0E0,0E0,0E0,0E0,0E0,0E0,0E0,0E0,0E0,0E0,0E0,0E0,0E0,0E0,0E0,0E0,0E0,0E0,0E0,0E0,0E0],"parents":[2147483647,0,0,1,1,2,2,3,3,4,4,5,5,6,6,7,7,8,8,9,9,10,10,11,11,12,12,13,13,14,14,15,15,16,16,17,17,18,18,19,19,20,20,21,21,22,22,23,23,24,24,25,25,26,26,27,27,28,28,29,29,30,30],"right_children":[2,4,6,8,10,12,14,16,18,20,22,24,26,28,30,32,34,36,38,40,42,44,46,48,50,52,54,56,58,60,62,-1,-1,-1,-1,-1,-1,-1,-1,-1,-1,-1,-1,-1,-1,-1,-1,-1,-1,-1,-1,-1,-1,-1,-1,-1,-1,-1,-1,-1,-1,-1,-1],"split_conditions":[-1.22334994E-1,1.0283233E0,-7.524334E-1,-1.1527108E0,-8.980552E-1,6.377141E-1,9.315475E-1,-1.9205955E0,-6.4731735E-1,-1.6855288E0,2.5451884E0,-2.3750856E0,1.5152966E0,4.731674E-1,1.7072678E0,-2.4299068E0,2E0,2E0,1E0,-2.2183466E0,2.3403678E0,2E0,2E0,6.0245407E-1,2E0,1.9762421E0,2E0,2E0,1E0,1E0,2.0912101E0,-2.596837E-1,-1.7550533E-1,-1.1642667E-1,-1.5634482E-1,-7.6891564E-2,-1.12673126E-1,-7.673644E-2,-4.4011276E-2,-1.7482804E-1,-6.273211E-2,-2.3510903E-2,4.5452196E-2,5.7299715E-2,1.1455723E-2,1.592825E-1,7.5742684E-2,2.5193906E-1,6.329041E-2,1.2041973E-1,7.675763E-2,1.5558705E-1,2.2324668E-1,2.7503783E-1,1.8755245E-1,-6.920612E-3,-4.2039283E-2,-1.0586819E-2,3.1353813E-2,2.6962345E-2,6.8616025E-2,9.825596E-2,1.6353767E-1],"split_indices":[6,4,5,6,6,6,6,6,6,6,7,5,6,6,6,6,3,3,3,6,7,3,3,6,3,7,3,3,3,3,6,0,0,0,0,0,0,0,0,0,0,0,0,0,0,0,0,0,0,0,0,0,0,0,0,0,0,0,0,0,0,0,0],"split_type":[0,0,0,0,0,0,0,0,0,0,0,0,0,0,0,0,0,0,0,0,0,0,0,0,0,0,0,0,0,0,0,0,0,0,0,0,0,0,0,0,0,0,0,0,0,0,0,0,0,0,0,0,0,0,0,0,0,0,0,0,0,0,0],"sum_hessian":[8E3,3.495E3,4.505E3,2.591E3,9.04E2,1.075E3,3.43E3,8.69E2,1.722E3,4.49E2,4.55E2,4.84E2,5.91E2,2.278E3,1.152E3,1.43E2,7.26E2,8.04E2,9.18E2,9.3E1,3.56E2,4.12E2,4.3E1,1.5E1,4.69E2,4.61E2,1.3E2,1.312E3,9.66E2,9.38E2,2.14E2,2.4E1,1.19E2,4.81E2,2.45E2,5.3E2,2.74E2,3.24E2,5.94E2,1E1,8.3E1,3.05E2,5.1E1,2.59E2,1.53E2,2.6E1,1.7E1,1.4E1,1E0,3.2E2,1.49E2,3.4E2,1.21E2,9E1,4E1,8.66E2,4.46E2,2.98E2,6.68E2,3.07E2,6.31E2,1.7E2,4.4E1],"tree_param":{"num_deleted":"0","num_feature":"10","num_nodes":"63","size_leaf_vector":"1"}},{"base_weights":[1.4028562E-3,-4.528622E-1,6.322207E-1,-6.7723733E-1,3.1090868E-1,3.2242492E-1,1.5590081E0,-1.051001E0,-3.6542246E-1,-8.849135E-2,7.29831E-1,1.7455636E-1,7.5286055E-1,1.3565147E0,2.0472338E0,-1.4306546E0,-9.0914214E-1,-2.4981934E-1,-5.951905E-1,-3.9575714E-1,1.3757773E-1,6.363652E-1,1.3917934E0,2.9557872E-1,-6.0352854E-2,9.1300774E-1,4.282997E-1,9.4002944E-1,1.5302088E0,1.9386932E0,3.1075135E-1,-2.0424007E-1,-1.3404833E-1,-1.1500893E-1,-7.888877E-2,-5.771134E-2,1.0606118E-2,-7.529219E-2,-4.7274794E-2,-1.676832E-1,-3.359992E-2,7.7928975E-3,1.0075356E-1,3.973662E-2,7.6508105E-2,1.9452569E-1,1.17830984E-1,-7.036105E-3,6.2396456E-2,-1.4023313E-2,1.766859E-2,5.1806737E-2,1.3262556E-1,3.1152418E-2,6.7985915E-2,1.1038693E-1,5.6338068E-2,1.725243E-1,1.14171445E-1,2.133338E-1,1.4187482E-1],"categories":[],"categories_nodes":[],"categories_segments":[],"categories_sizes":[],"default_left":[0,0,0,0,0,0,0,0,0,0,0,0,0,0,0,0,0,0,0,0,0,0,0,0,0,0,0,0,0,0,0,0,0,0,0,0,0,0,0,0,0,0,0,0,0,0,0,0,0,0,0,0,0,0,0,0,0,0,0,0,0],"id":14,"left_children":[1,3,5,7,9,11,13,15,17,19,21,23,25,27,29,31,33,35,37,39,41,43,45,47,49,51,53,55,57,59,-1,-1,-1,-1,-1,-1,-1,-1,-1,-1,-1,-1,-1,-1,-1,-1,-1,-1,-1,-1,-1,-1,-1,-1,-1,-1,-1,-1,-1,-1,-1],"loss_changes":[2.2930408E3,7.9742926E2,9.613318E2,4.1871204E2,1.7691927E2,1.5975208E2,8.016858E1,8.675586E1,5.196576E1,3.7703552E1,3.1039673E1,5.3209E1,3.2978516E1,4.167688E1,2.2055847E1,2.1699036E1,3.365979E1,1.5229741E2,1.2313416E1,1.7044098E1,1.6163649E1,1.3662369E1,5.1516724E0,1.4845312E2,1.2086193E1,6.9329285E1,6.074665E0,1.0362503E1,2.9777771E1,1.9643127E1,0E0,0E0,0E0,0E0,0E0,0E0,0E0,0E0,0E0,0E0,0E0,0E0,0E0,0E0,0E0,0E0,0E0,0E0,0E0,0E0,0E0,0E0,0E0,0E0,0E0,0E0,0E0,0E0,0E0,0E0,0E0],"parents":[2147483647,0,0,1,1,2,2,3,3,4,4,5,5,6,6,7,7,8,8,9,9,10,10,11,11,12,12,13,13,14,14,15,15,16,16,17,17,18,18,19,19,20,20,21,21,22,22,23,23,24,24,25,25,26,26,27,27,28,28,29,29],"right_children":[2,4,6,8,10,12,14,16,18,20,22,24,26,28,30,32,34,36,38,40,42,44,46,48,50,52,54,56,58,60,-1,-1,-1,-1,-1,-1,-1,-1,-1,-1,-1,-1,-1,-1,-1,-1,-1,-1,-1,-1,-1,-1,-1,-1,-1,-1,-1,-1,-1,-1,-1],"split_conditions":[2.8511402E-1,7.603224E-1,9.2902315E-1,-7.100018E-1,-6.081396E-1,1.2371342E0,1.2136276E0,-1.5092287E0,2E0,-1.2780797E0,2.5451884E0,2E0,2E0,1.0847278E0,2.0912101E0,-2.2183466E0,1E0,1E0,-2.2027947E-1,-2.2183466E0,2.8660738E0,1.246439E0,-2.3750856E0,1E0,9.6680754E-1,1E0,1.7425277E0,2E0,2E0,2E0,3.1075135E-1,-2.0424007E-1,-1.3404833E-1,-1.1500893E-1,-7.888877E-2,-5.771134E-2,1.0606118E-2,-7.529219E-2,-4.7274794E-2,-1.676832E-1,-3.359992E-2,7.7928975E-3,1.0075356E-1,3.973662E-2,7.6508105E-2,1.9452569E-1,1.17830984E-1,-7.036105E-3,6.2396456E-2,-1.4023313E-2,1.766859E-2,5.1806737E-2,1.3262556E-1,3.1152418E-2,6.7985915E-2,1.1038693E-1,5.6338068E-2,1.725243E-1,1.14171445E-1,2.133338E-1,1.4187482E-1],"split_indices":[6,7,4,6,6,6,6,6,3,6,7,3,3,7,6,6,3,3,6,6,7,7,5,3,6,3,6,3,3,3,0,0,0,0,0,0,0,0,0,0,0,0,0,0,0,0,0,0,0,0,0,0,0,0,0,0,0,0,0,0,0],"split_type":[0,0,0,0,0,0,0,0,0,0,0,0,0,0,0,0,0,0,0,0,0,0,0,0,0,0,0,0,0,0,0,0,0,0,0,0,0,0,0,0,0,0,0,0,0,0,0,0,0,0,0,0,0,0,0,0,0,0,0,0,0],"sum_hessian":[8E3,4.651E3,3.349E3,3.595E3,1.056E3,2.511E3,8.38E2,1.634E3,1.961E3,5.41E2,5.15E2,1.87E3,6.41E2,5.95E2,2.43E2,4.42E2,1.192E3,1.306E3,6.55E2,2.29E2,3.12E2,4.53E2,6.2E1,1.234E3,6.36E2,4.28E2,2.13E2,1.77E2,4.18E2,2.23E2,2E1,5.4E1,3.88E2,3.94E2,7.98E2,6.8E2,6.26E2,2.84E2,3.71E2,9E0,2.2E2,2.93E2,1.9E1,1.6E2,2.93E2,1.5E1,4.7E1,5.84E2,6.5E2,4.76E2,1.6E2,2.2E2,2.08E2,1.47E2,6.6E1,1.22E2,5.5E1,2.76E2,1.42E2,1.6E2,6.3E1],"tree_param":{"num_deleted":"0","num_feature":"10","num_nodes":"61","size_leaf_vector":"1"}},{"base_weights":[1.3994228E-3,-5.6586194E-1,4.149557E-1,-7.906339E-1,7.010435E-2,1.479592E-1,1.2384375E0,-1.1796701E0,-6.1313164E-1,-3.210921E-1,3.0005243E-1,-6.760749E-2,4.9026725E-1,9.2310786E-1,1.584231E0,-1.0402501E0,-1.4497838E0,-5.071131E-1,-8.2335865E-1,-1.3842086E-1,-6.3921976E-1,4.688E-1,3.226085E-2,-2.7945492E-1,3.689003E-2,3.979092E-1,8.799937E-1,1.4341339E0,8.144694E-1,1.2524563E0,1.850349E0,-1.3732259E-1,-7.146853E-2,-1.847359E-1,-1.317958E-1,-7.988511E-2,-2.0142063E-2,-9.535595E-2,-6.6950455E-2,-4.822549E-2,2.3401799E-2,-8.8374026E-2,-3.1804815E-2,1.0898567E-2,8.4746584E-2,-2.3208244E-2,2.0891935E-2,-4.025014E-2,-1.2427138E-2,3.495291E-2,-2.7363503E-2,5.2403368E-2,1.5370158E-2,8.064752E-2,1.7145407E-1,2.1548365E-1,1.2666132E-1,9.440214E-2,5.1761903E-2,1.4153992E-1,8.295348E-2,1.732896E-1,2.6052812E-1],"categories":[],"categories_nodes":[],"categories_segments":[],"categories_sizes":[],"default_left":[0,0,0,0,0,0,0,0,0,0,0,0,0,0,0,0,0,0,0,0,0,0,0,0,0,0,0,0,0,0,0,0,0,0,0,0,0,0,0,0,0,0,0,0,0,0,0,0,0,0,0,0,0,0,0,0,0,0,0,0,0,0,0],"id":15,"left_children":[1,3,5,7,9,11,13,15,17,19,21,23,25,27,29,31,33,35,37,39,41,43,45,47,49,51,53,55,57,59,61,-1,-1,-1,-1,-1,-1,-1,-1,-1,-1,-1,-1,-1,-1,-1,-1,-1,-1,-1,-1,-1,-1,-1,-1,-1,-1,-1,-1,-1,-1,-1,-1],"loss_changes":[1.8772256E3,4.8235986E2,1.0173602E3,1.714303E2,7.943654E1,2.5800372E2,1.22078735E2,2.7866089E1,3.7784058E1,1.8914394E1,2.5110065E1,4.751745E1,4.82782E1,3.1864563E1,4.5271484E1,5.5172485E1,1.1349243E1,1.0168503E2,1.0839874E1,2.6876797E1,9.064358E0,4.6368683E1,1.013536E1,1.348819E1,1.3969992E2,3.3615265E1,1.4446777E1,9.706116E0,1.8470917E1,1.5571503E1,2.1820068E1,0E0,0E0,0E0,0E0,0E0,0E0,0E0,0E0,0E0,0E0,0E0,0E0,0E0,0E0,0E0,0E0,0E0,0E0,0E0,0E0,0E0,0E0,0E0,0E0,0E0,0E0,0E0,0E0,0E0,0E0,0E0,0E0],"parents":[2147483647,0,0,1,1,2,2,3,3,4,4,5,5,6,6,7,7,8,8,9,9,10,10,11,11,12,12,13,13,14,14,15,15,16,16,17,17,18,18,19,19,20,20,21,21,22,22,23,23,24,24,25,25,26,26,27,27,28,28,29,29,30,30],"right_children":[2,4,6,8,10,12,14,16,18,20,22,24,26,28,30,32,34,36,38,40,42,44,46,48,50,52,54,56,58,60,62,-1,-1,-1,-1,-1,-1,-1,-1,-1,-1,-1,-1,-1,-1,-1,-1,-1,-1,-1,-1,-1,-1,-1,-1,-1,-1,-1,-1,-1,-1,-1,-1],"split_conditions":[-1.6934834E-1,3.3322176E-1,1.3462132E-1,-1.2153953E0,-1.1370397E0,8.257675E-1,7.1998745E-1,2E0,2E0,2E0,2E0,1E0,1.6367477E0,-1.9932852E0,1.3717366E0,1E0,-1.8344043E0,1E0,-6.35564E-1,1E0,1.506455E0,1E0,1.6241246E0,3.5563403E-1,2E0,2E0,2.2087433E0,-2.3750856E0,2E0,2E0,1.7425277E0,-1.3732259E-1,-7.146853E-2,-1.847359E-1,-1.317958E-1,-7.988511E-2,-2.0142063E-2,-9.535595E-2,-6.6950455E-2,-4.822549E-2,2.3401799E-2,-8.8374026E-2,-3.1804815E-2,1.0898567E-2,8.4746584E-2,-2.3208244E-2,2.0891935E-2,-4.025014E-2,-1.2427138E-2,3.495291E-2,-2.7363503E-2,5.2403368E-2,1.5370158E-2,8.064752E-2,1.7145407E-1,2.1548365E-1,1.2666132E-1,9.440214E-2,5.1761903E-2,1.4153992E-1,8.295348E-2,1.732896E-1,2.6052812E-1],"split_indices":[6,4,4,6,6,6,6,3,3,3,3,3,6,5,7,3,6,3,6,3,7,3,4,6,3,3,6,5,3,3,6,0,0,0,0,0,0,0,0,0,0,0,0,0,0,0,0,0,0,0,0,0,0,0,0,0,0,0,0,0,0,0,0],"split_type":[0,0,0,0,0,0,0,0,0,0,0,0,0,0,0,0,0,0,0,0,0,0,0,0,0,0,0,0,0,0,0,0,0,0,0,0,0,0,0,0,0,0,0,0,0,0,0,0,0,0,0,0,0,0,0,0,0,0,0,0,0,0,0],"sum_hessian":[8E3,3.373E3,4.627E3,2.492E3,8.81E2,3.495E3,1.132E3,7.79E2,1.713E3,3.26E2,5.55E2,2.145E3,1.35E3,5.94E2,5.38E2,5.17E2,2.62E2,1.141E3,5.72E2,2.08E2,1.18E2,3.4E2,2.15E2,7.08E2,1.437E3,1.093E3,2.57E2,1.02E2,4.92E2,2.42E2,2.96E2,2.54E2,2.63E2,6.2E1,2E2,5.83E2,5.58E2,3.07E2,2.65E2,1.08E2,1E2,6.6E1,5.2E1,1.75E2,1.65E2,8.6E1,1.29E2,3.94E2,3.14E2,7.16E2,7.21E2,7.2E2,3.73E2,2.38E2,1.9E1,1.7E1,8.5E1,3.41E2,1.51E2,1.73E2,6.9E1,2.59E2,3.7E1],"tree_param":{"num_deleted":"0","num_feature":"10","num_nodes":"63","size_leaf_vector":"1"}},{"base_weights":[1.3323079E-3,-3.8496864E-1,4.9746895E-1,-5.732829E-1,2.2577375E-1,2.5422296E-1,1.2695228E0,-9.534377E-1,-3.7325773E-1,-8.794627E-2,5.7529056E-1,1.14811085E-1,5.767735E-1,1.1033245E0,1.7047895E0,-1.3555766E0,-8.718821E-1,-5.571715E-1,-2.5360227E-1,-3.74553E-1,7.23201E-2,8.865648E-1,4.297444E-1,-9.5585406E-2,2.0983458E-1,7.09192E-1,3.166147E-1,9.909299E-1,1.6875259E0,1.5533097E0,2.2930222E0,-1.9768731E-1,-1.2543671E-1,-7.6705776E-2,-1.07484035E-1,-4.681402E-2,-7.301124E-2,-1.4835562E-2,-4.617087E-2,-1.6440285E-2,-6.903501E-2,-1.32109625E-2,2.7748376E-2,1.0696945E-1,5.1067002E-2,2.1728547E-2,5.5779286E-2,-1.9379249E-2,6.08535E-5,4.908346E-2,-8.311431E-3,3.594133E-2,1.0764899E-1,2.4045762E-2,5.7191607E-2,1.14026345E-1,6.820417E-2,2.597991E-1,1.5408619E-1,1.1726638E-1,1.7433809E-1,2.5974688E-1,1.5788709E-1],"categories":[],"categories_nodes":[],"categories_segments":[],"categories_sizes":[],"default_left":[0,0,0,0,0,0,0,0,0,0,0,0,0,0,0,0,0,0,0,0,0,0,0,0,0,0,0,0,0,0,0,0,0,0,0,0,0,0,0,0,0,0,0,0,0,0,0,0,0,0,0,0,0,0,0,0,0,0,0,0,0,0,0],"id":16,"left_children":[1,3,5,7,9,11,13,15,17,19,21,23,25,27,29,31,33,35,37,39,41,43,45,47,49,51,53,55,57,59,61,-1,-1,-1,-1,-1,-1,-1,-1,-1,-1,-1,-1,-1,-1,-1,-1,-1,-1,-1,-1,-1,-1,-1,-1,-1,-1,-1,-1,-1,-1,-1,-1],"loss_changes":[1.5336477E3,5.175661E2,6.575371E2,2.6114758E2,1.16389694E2,1.19771835E2,5.8812866E1,3.768213E1,4.948291E1,2.5749804E1,2.2362E1,3.72463E1,2.7473114E1,3.8381042E1,1.6932434E1,9.970764E0,2.0195251E1,1.3330902E1,2.9894127E1,1.3225828E1,1.5135617E1,1.03989105E1,9.237328E0,5.479335E0,1.05655624E2,6.7960724E1,5.1704197E0,2.2931732E1,8.949493E0,1.1412628E1,5.682892E0,0E0,0E0,0E0,0E0,0E0,0E0,0E0,0E0,0E0,0E0,0E0,0E0,0E0,0E0,0E0,0E0,0E0,0E0,0E0,0E0,0E0,0E0,0E0,0E0,0E0,0E0,0E0,0E0,0E0,0E0,0E0,0E0],"parents":[2147483647,0,0,1,1,2,2,3,3,4,4,5,5,6,6,7,7,8,8,9,9,10,10,11,11,12,12,13,13,14,14,15,15,16,16,17,17,18,18,19,19,20,20,21,21,22,22,23,23,24,24,25,25,26,26,27,27,28,28,29,29,30,30],"right_children":[2,4,6,8,10,12,14,16,18,20,22,24,26,28,30,32,34,36,38,40,42,44,46,48,50,52,54,56,58,60,62,-1,-1,-1,-1,-1,-1,-1,-1,-1,-1,-1,-1,-1,-1,-1,-1,-1,-1,-1,-1,-1,-1,-1,-1,-1,-1,-1,-1,-1,-1,-1,-1],"split_conditions":[2.3810066E-1,6.981446E-1,6.028055E-1,-9.72493E-1,-6.081396E-1,1.1235187E0,1.2371342E0,-1.8344043E0,-4.4751063E-1,-1.3525176E0,-1.8023849E0,1E0,2E0,2.4235759E0,1.8874855E0,-2.4299068E0,2E0,2E0,2E0,2E0,1.4442774E0,2E0,1E0,6.377141E-1,2E0,1E0,-3.6187983E-1,2E0,-2.4705358E0,1E0,2E0,-1.9768731E-1,-1.2543671E-1,-7.6705776E-2,-1.07484035E-1,-4.681402E-2,-7.301124E-2,-1.4835562E-2,-4.617087E-2,-1.6440285E-2,-6.903501E-2,-1.32109625E-2,2.7748376E-2,1.0696945E-1,5.1067002E-2,2.1728547E-2,5.5779286E-2,-1.9379249E-2,6.08535E-5,4.908346E-2,-8.311431E-3,3.594133E-2,1.0764899E-1,2.4045762E-2,5.7191607E-2,1.14026345E-1,6.820417E-2,2.597991E-1,1.5408619E-1,1.1726638E-1,1.7433809E-1,2.5974688E-1,1.5788709E-1],"split_indices":[6,7,7,6,6,6,6,6,6,6,5,3,3,7,6,6,3,3,3,3,7,3,3,6,3,3,4,3,5,3,3,0,0,0,0,0,0,0,0,0,0,0,0,0,0,0,0,0,0,0,0,0,0,0,0,0,0,0,0,0,0,0,0],"split_type":[0,0,0,0,0,0,0,0,0,0,0,0,0,0,0,0,0,0,0,0,0,0,0,0,0,0,0,0,0,0,0,0,0,0,0,0,0,0,0,0,0,0,0,0,0,0,0,0,0,0,0,0,0,0,0,0,0,0,0,0,0,0,0],"sum_hessian":[8E3,4.498E3,3.502E3,3.438E3,1.06E3,2.664E3,8.38E2,1.184E3,2.254E3,5.59E2,5.01E2,1.861E3,8.03E2,6.09E2,2.29E2,1.97E2,9.87E2,8.87E2,1.367E3,2E2,3.59E2,1.58E2,3.43E2,5.79E2,1.282E3,5.31E2,2.72E2,5.13E2,9.6E1,1.85E2,4.4E1,2.5E1,1.72E2,6.54E2,3.33E2,5.88E2,2.99E2,9.09E2,4.58E2,1.21E2,7.9E1,1.8E2,1.79E2,1.05E2,5.3E1,1.3E2,2.13E2,2.86E2,2.93E2,6.54E2,6.28E2,2.73E2,2.58E2,2.11E2,6.1E1,3.44E2,1.69E2,1.1E1,8.5E1,6.4E1,1.21E2,2.9E1,1.5E1],"tree_param":{"num_deleted":"0","num_feature":"10","num_nodes":"63","size_leaf_vector":"1"}},{"base_weights":[1.3276393E-3,-4.1629636E-1,3.748556E-1,-5.971893E-1,1.1606488E-1,1.5872766E-1,1.0347025E0,-9.029054E-1,-4.2609754E-1,-1.3954635E-1,4.2952722E-1,-4.240644E-5,4.4055495E-1,7.091437E-1,1.2714745E0,-1.4791629E0,-8.5515064E-1,-3.3737153E-1,-6.049119E-1,-7.335673E-1,-7.325148E-2,3.5550714E-1,1.0413148E0,-1.9234152E-1,9.164807E-2,3.6276662E-1,7.819197E-1,5.570592E-1,9.601634E-1,1.4411473E0,8.988215E-1,-1.8448225E-1,-1.2749197E-1,-7.480283E-2,-1.0590237E-1,-5.9965827E-2,-6.4378986E-3,-7.296614E-2,-5.0708145E-2,5.9575226E-2,-8.252415E-2,9.433969E-3,-3.3595778E-2,1.1290505E-2,4.7543027E-2,1.2680897E-1,6.523143E-2,-3.0771552E-2,-9.539296E-3,3.4940418E-2,-1.6886778E-2,1.3746365E-2,4.7145117E-2,7.0407726E-2,1.4940031E-1,4.1733537E-2,7.473887E-2,1.7119996E-1,8.7911904E-2,9.6977726E-2,1.9359508E-1,1.6915265E-1,8.014207E-2],"categories":[],"categories_nodes":[],"categories_segments":[],"categories_sizes":[],"default_left":[0,0,0,0,0,0,0,0,0,0,0,0,0,0,0,0,0,0,0,0,0,0,0,0,0,0,0,0,0,0,0,0,0,0,0,0,0,0,0,0,0,0,0,0,0,0,0,0,0,0,0,0,0,0,0,0,0,0,0,0,0,0,0],"id":17,"left_children":[1,3,5,7,9,11,13,15,17,19,21,23,25,27,29,31,33,35,37,39,41,43,45,47,49,51,53,55,57,59,61,-1,-1,-1,-1,-1,-1,-1,-1,-1,-1,-1,-1,-1,-1,-1,-1,-1,-1,-1,-1,-1,-1,-1,-1,-1,-1,-1,-1,-1,-1,-1,-1],"loss_changes":[1.248266E3,3.6389227E2,6.0222614E2,1.4711688E2,7.689932E1,1.4242569E2,7.941907E1,2.6556885E1,2.8512451E1,2.0778572E1,1.914746E1,3.593401E1,3.0173996E1,1.6300842E1,3.6768494E1,3.3239594E0,1.9649475E1,8.674341E1,6.9403687E0,6.950449E0,2.1032692E1,1.1176449E1,3.2307243E0,7.3306007E0,9.272539E1,2.2854973E1,1.0699341E1,7.0545044E0,8.548737E0,9.421564E1,1.3391495E1,0E0,0E0,0E0,0E0,0E0,0E0,0E0,0E0,0E0,0E0,0E0,0E0,0E0,0E0,0E0,0E0,0E0,0E0,0E0,0E0,0E0,0E0,0E0,0E0,0E0,0E0,0E0,0E0,0E0,0E0,0E0,0E0],"parents":[2147483647,0,0,1,1,2,2,3,3,4,4,5,5,6,6,7,7,8,8,9,9,10,10,11,11,12,12,13,13,14,14,15,15,16,16,17,17,18,18,19,19,20,20,21,21,22,22,23,23,24,24,25,25,26,26,27,27,28,28,29,29,30,30],"right_children":[2,4,6,8,10,12,14,16,18,20,22,24,26,28,30,32,34,36,38,40,42,44,46,48,50,52,54,56,58,60,62,-1,-1,-1,-1,-1,-1,-1,-1,-1,-1,-1,-1,-1,-1,-1,-1,-1,-1,-1,-1,-1,-1,-1,-1,-1,-1,-1,-1,-1,-1,-1,-1],"split_conditions":[-1.6554967E-2,1.0283233E0,9.2902315E-1,-1.0626019E0,-7.335085E-1,9.315475E-1,6.377141E-1,-2.1164844E0,2E0,-1.8657466E0,2.5451884E0,1E0,1.7072678E0,1.6722622E0,2E0,-2.4299068E0,2E0,1E0,-5.846329E-1,-2.3750856E0,2E0,1.1483114E0,2E0,3.7522292E-1,2E0,1E0,2.2087433E0,3.4779847E-1,-2.3750856E0,1E0,-2.1841855E0,-1.8448225E-1,-1.2749197E-1,-7.480283E-2,-1.0590237E-1,-5.9965827E-2,-6.4378986E-3,-7.296614E-2,-5.0708145E-2,5.9575226E-2,-8.252415E-2,9.433969E-3,-3.3595778E-2,1.1290505E-2,4.7543027E-2,1.2680897E-1,6.523143E-2,-3.0771552E-2,-9.539296E-3,3.4940418E-2,-1.6886778E-2,1.3746365E-2,4.7145117E-2,7.0407726E-2,1.4940031E-1,4.1733537E-2,7.473887E-2,1.7119996E-1,8.7911904E-2,9.6977726E-2,1.9359508E-1,1.6915265E-1,8.014207E-2],"split_indices":[6,4,4,6,6,6,6,6,3,6,7,3,6,7,3,6,3,3,6,5,3,7,3,6,3,3,6,6,5,3,5,0,0,0,0,0,0,0,0,0,0,0,0,0,0,0,0,0,0,0,0,0,0,0,0,0,0,0,0,0,0,0,0],"split_type":[0,0,0,0,0,0,0,0,0,0,0,0,0,0,0,0,0,0,0,0,0,0,0,0,0,0,0,0,0,0,0,0,0,0,0,0,0,0,0,0,0,0,0,0,0,0,0,0,0,0,0,0,0,0,0,0,0,0,0,0,0,0,0],"sum_hessian":[8E3,3.777E3,4.223E3,2.819E3,9.58E2,3.182E3,1.041E3,1.01E3,1.809E3,5.28E2,4.3E2,2.036E3,1.146E3,4.4E2,6.01E2,7.5E1,9.35E2,1.211E3,5.98E2,5.2E1,4.76E2,3.85E2,4.5E1,6.57E2,1.379E3,9.35E2,2.11E2,2.76E2,1.64E2,4.11E2,1.9E2,2.4E1,5.1E1,6.16E2,3.19E2,6.17E2,5.94E2,2.6E2,3.38E2,3E0,4.9E1,2.91E2,1.85E2,1.28E2,2.57E2,2.7E1,1.8E1,2.99E2,3.58E2,6.93E2,6.86E2,3.05E2,6.3E2,1.92E2,1.9E1,1.61E2,1.15E2,1.4E1,1.5E2,2.12E2,1.99E2,1.9E1,1.71E2],"tree_param":{"num_deleted":"0","num_feature":"10","num_nodes":"63","size_leaf_vector":"1"}},{"base_weights":[1.2815488E-3,-4.39042E-1,2.921196E-1,-5.7011485E-1,1.2850545E-1,9.607188E-2,8.8990206E-1,-8.3713466E-1,-4.358866E-1,-2.1239671E-1,2.7581355E-1,-1.04263626E-1,3.2057407E-1,7.205766E-1,1.284556E0,-1.2243633E0,-7.675063E-1,-6.1195195E-1,-3.460092E-1,-1.3338158E0,-1.5961654E-1,4.1236567E-1,5.965921E-2,-2.523593E-1,-2.8384518E-2,2.1987139E-1,5.497241E-1,6.543116E-1,1.2827827E0,1.1593345E0,1.9633998E0,-1.6535394E-1,-1.1011698E-1,-9.824995E-2,-6.644945E-2,-7.4081264E-2,-5.000201E-2,-1.0257139E-2,-5.7722475E-2,-7.451802E-2,-1.7361565E-1,-2.8748447E-2,2.4909891E-2,6.660594E-3,7.741891E-2,-4.4947495E-3,3.1121586E-2,-3.3836227E-2,-1.4900103E-2,2.0502891E-2,-2.5134046E-2,7.606092E-4,3.1440265E-2,7.0192E-2,2.4393057E-2,7.7049315E-2,3.9849956E-2,1.7280833E-1,1.05359614E-1,1.096495E-1,2.0933771E-1,1.7652906E-1,2.7578023E-1],"categories":[],"categories_nodes":[],"categories_segments":[],"categories_sizes":[],"default_left":[0,0,0,0,0,0,0,0,0,0,0,0,0,0,0,0,0,0,0,0,0,0,0,0,0,0,0,0,0,0,0,0,0,0,0,0,0,0,0,0,0,0,0,0,0,0,0,0,0,0,0,0,0,0,0,0,0,0,0,0,0,0,0],"id":18,"left_children":[1,3,5,7,9,11,13,15,17,19,21,23,25,27,29,31,33,35,37,39,41,43,45,47,49,51,53,55,57,59,61,-1,-1,-1,-1,-1,-1,-1,-1,-1,-1,-1,-1,-1,-1,-1,-1,-1,-1,-1,-1,-1,-1,-1,-1,-1,-1,-1,-1,-1,-1,-1,-1],"loss_changes":[1.024759E3,2.3685687E2,5.646718E2,9.232147E1,3.0088737E1,1.6329543E2,7.859607E1,2.235553E1,2.7053558E1,1.0500255E1,1.2313229E1,2.1557352E1,3.93853E1,3.026828E1,2.798584E1,5.05249E0,1.5625061E1,8.009674E0,6.427638E1,6.009073E-1,9.16513E0,3.1975052E1,4.303253E0,5.7275085E0,6.614348E1,2.3895863E1,2.4122925E1,2.1953705E1,7.058243E0,1.5489136E1,3.6301117E0,0E0,0E0,0E0,0E0,0E0,0E0,0E0,0E0,0E0,0E0,0E0,0E0,0E0,0E0,0E0,0E0,0E0,0E0,0E0,0E0,0E0,0E0,0E0,0E0,0E0,0E0,0E0,0E0,0E0,0E0,0E0,0E0],"parents":[2147483647,0,0,1,1,2,2,3,3,4,4,5,5,6,6,7,7,8,8,9,9,10,10,11,11,12,12,13,13,14,14,15,15,16,16,17,17,18,18,19,19,20,20,21,21,22,22,23,23,24,24,25,25,26,26,27,27,28,28,29,29,30,30],"right_children":[2,4,6,8,10,12,14,16,18,20,22,24,26,28,30,32,34,36,38,40,42,44,46,48,50,52,54,56,58,60,62,-1,-1,-1,-1,-1,-1,-1,-1,-1,-1,-1,-1,-1,-1,-1,-1,-1,-1,-1,-1,-1,-1,-1,-1,-1,-1,-1,-1,-1,-1,-1,-1],"split_conditions":[-2.4770392E-1,1.0847278E0,1.3462132E-1,-1.2153953E0,-1.2780797E0,6.4554965E-1,9.94232E-1,-1.9676088E0,1E0,-2.2183466E0,2E0,1E0,1.3350787E0,2.6475987E0,2.3403678E0,-2.4299068E0,1E0,-7.335085E-1,2E0,-1.897835E0,2.0213256E0,1E0,-5.572085E-1,2.3810066E-1,2E0,1E0,2E0,2E0,-2.3750856E0,2.0912101E0,1.8874855E0,-1.6535394E-1,-1.1011698E-1,-9.824995E-2,-6.644945E-2,-7.4081264E-2,-5.000201E-2,-1.0257139E-2,-5.7722475E-2,-7.451802E-2,-1.7361565E-1,-2.8748447E-2,2.4909891E-2,6.660594E-3,7.741891E-2,-4.4947495E-3,3.1121586E-2,-3.3836227E-2,-1.4900103E-2,2.0502891E-2,-2.5134046E-2,7.606092E-4,3.1440265E-2,7.0192E-2,2.4393057E-2,7.7049315E-2,3.9849956E-2,1.7280833E-1,1.05359614E-1,1.096495E-1,2.0933771E-1,1.7652906E-1,2.7578023E-1],"split_indices":[6,7,4,6,6,6,6,6,3,6,3,3,6,7,7,6,3,6,3,5,4,3,6,6,3,3,3,3,5,6,6,0,0,0,0,0,0,0,0,0,0,0,0,0,0,0,0,0,0,0,0,0,0,0,0,0,0,0,0,0,0,0,0],"split_type":[0,0,0,0,0,0,0,0,0,0,0,0,0,0,0,0,0,0,0,0,0,0,0,0,0,0,0,0,0,0,0,0,0,0,0,0,0,0,0,0,0,0,0,0,0,0,0,0,0,0,0,0,0,0,0,0,0,0,0,0,0,0,0],"sum_hessian":[8E3,3.182E3,4.818E3,2.585E3,5.97E2,3.629E3,1.189E3,8.63E2,1.722E3,1.8E2,4.17E2,1.918E3,1.711E3,8.34E2,3.55E2,1.29E2,7.34E2,5.8E2,1.142E3,7E0,1.73E2,2.55E2,1.62E2,6.49E2,1.269E3,1.19E3,5.21E2,7.48E2,8.6E1,3.02E2,5.3E1,2.6E1,1.03E2,2.35E2,4.99E2,2.67E2,3.13E2,5.57E2,5.85E2,4E0,3E0,1.32E2,4.1E1,1.31E2,1.24E2,1.15E2,4.7E1,3.53E2,2.96E2,6.2E2,6.49E2,3.67E2,8.23E2,3.47E2,1.74E2,5.13E2,2.35E2,2.7E1,5.9E1,2.85E2,1.7E1,4.5E1,8E0],"tree_param":{"num_deleted":"0","num_feature":"10","num_nodes":"63","size_leaf_vector":"1"}},{"base_weights":[1.2117209E-3,-2.7395436E-1,3.833226E-1,2.047929E-1,-4.0376917E-1,2.1790895E-1,1.0195267E0,-3.2695867E-2,4.7562104E-1,-6.2760794E-1,-2.1205926E-1,1.2262892E-1,4.9244243E-1,1.1693244E0,7.122084E-1,-8.449816E-2,6.598184E-1,4.164832E-1,9.2636013E-1,-8.3112353E-1,-5.149018E-1,-1.3824816E-1,-3.5902366E-1,2.0255966E-1,-3.4896355E-2,4.4195518E-1,1.1532427E0,7.6731694E-1,1.5301241E0,6.0350835E-1,1.1095251E0,-5.6880523E-2,-7.174083E-4,1.1523285E-2,8.307483E-2,2.0902319E-2,5.344602E-2,1.3351159E-1,7.4539356E-2,-7.034447E-2,-1.07013E-1,-6.964924E-2,-4.220129E-2,-3.507719E-2,9.128101E-3,-4.105187E-2,-2.370553E-2,-3.4682488E-3,4.2141598E-2,-6.367953E-3,2.1506358E-2,5.584189E-2,1.9850416E-2,1.4646128E-1,6.00909E-2,6.515473E-2,1.2313973E-1,1.183814E-1,1.793884E-1,1.8068448E-1,5.5930763E-2,9.20939E-2,1.5017384E-1],"categories":[],"categories_nodes":[],"categories_segments":[],"categories_sizes":[],"default_left":[0,0,0,0,0,0,0,0,0,0,0,0,0,0,0,0,0,0,0,0,0,0,0,0,0,0,0,0,0,0,0,0,0,0,0,0,0,0,0,0,0,0,0,0,0,0,0,0,0,0,0,0,0,0,0,0,0,0,0,0,0,0,0],"id":19,"left_children":[1,3,5,7,9,11,13,15,17,19,21,23,25,27,29,31,33,35,37,39,41,43,45,47,49,51,53,55,57,59,61,-1,-1,-1,-1,-1,-1,-1,-1,-1,-1,-1,-1,-1,-1,-1,-1,-1,-1,-1,-1,-1,-1,-1,-1,-1,-1,-1,-1,-1,-1,-1,-1],"loss_changes":[8.413618E2,2.8919736E2,3.523213E2,6.3883965E1,1.5692523E2,6.951872E1,3.0977783E1,1.9068882E1,1.1982445E1,3.8290466E1,2.1352676E1,2.4887104E1,2.2343277E1,6.598132E1,9.22052E0,1.8495527E1,3.3484497E0,9.9721985E0,2.9252815E0,1.7556885E1,1.8075012E1,6.4178246E1,4.0417175E0,6.8084274E1,4.805325E0,1.79785E1,7.374943E0,1.1071228E1,2.0072632E1,8.669701E0,2.1673546E0,0E0,0E0,0E0,0E0,0E0,0E0,0E0,0E0,0E0,0E0,0E0,0E0,0E0,0E0,0E0,0E0,0E0,0E0,0E0,0E0,0E0,0E0,0E0,0E0,0E0,0E0,0E0,0E0,0E0,0E0,0E0,0E0],"parents":[2147483647,0,0,1,1,2,2,3,3,4,4,5,5,6,6,7,7,8,8,9,9,10,10,11,11,12,12,13,13,14,14,15,15,16,16,17,17,18,18,19,19,20,20,21,21,22,22,23,23,24,24,25,25,26,26,27,27,28,28,29,29,30,30],"right_children":[2,4,6,8,10,12,14,16,18,20,22,24,26,28,30,32,34,36,38,40,42,44,46,48,50,52,54,56,58,60,62,-1,-1,-1,-1,-1,-1,-1,-1,-1,-1,-1,-1,-1,-1,-1,-1,-1,-1,-1,-1,-1,-1,-1,-1,-1,-1,-1,-1,-1,-1,-1,-1],"split_conditions":[2.8511402E-1,-1.134234E0,8.846778E-1,-5.7287955E-1,-6.943307E-1,1.2371342E0,2E0,2.8660738E0,2.6475987E0,-1.379942E0,2E0,2E0,2.0912101E0,1E0,1.3350787E0,-1.6855288E0,-1.8344043E0,1E0,-2.3750856E0,2E0,1E0,1E0,4.2211715E-2,1E0,-3.4022352E-1,2E0,2E0,1.5152966E0,7.552475E-1,-2.565986E0,2.169684E0,-5.6880523E-2,-7.174083E-4,1.1523285E-2,8.307483E-2,2.0902319E-2,5.344602E-2,1.3351159E-1,7.4539356E-2,-7.034447E-2,-1.07013E-1,-6.964924E-2,-4.220129E-2,-3.507719E-2,9.128101E-3,-4.105187E-2,-2.370553E-2,-3.4682488E-3,4.2141598E-2,-6.367953E-3,2.1506358E-2,5.584189E-2,1.9850416E-2,1.4646128E-1,6.00909E-2,6.515473E-2,1.2313973E-1,1.183814E-1,1.793884E-1,1.8068448E-1,5.5930763E-2,9.20939E-2,1.5017384E-1],"split_indices":[6,5,7,6,6,6,3,7,7,6,3,3,6,3,6,6,6,3,5,3,3,3,6,3,7,3,3,6,6,5,7,0,0,0,0,0,0,0,0,0,0,0,0,0,0,0,0,0,0,0,0,0,0,0,0,0,0,0,0,0,0,0,0],"split_type":[0,0,0,0,0,0,0,0,0,0,0,0,0,0,0,0,0,0,0,0,0,0,0,0,0,0,0,0,0,0,0,0,0,0,0,0,0,0,0,0,0,0,0,0,0,0,0,0,0,0,0,0,0,0,0,0,0,0,0,0,0,0,0],"sum_hessian":[8E3,4.651E3,3.349E3,9.92E2,3.659E3,2.659E3,6.9E2,5.29E2,4.63E2,1.687E3,1.972E3,1.975E3,6.84E2,4.62E2,2.28E2,4.93E2,3.6E1,4.11E2,5.2E1,5.99E2,1.088E3,1.314E3,6.58E2,1.31E3,6.65E2,6.37E2,4.7E1,2.2E2,2.42E2,1.81E2,4.7E1,6.7E1,4.26E2,9E0,2.7E1,1.5E2,2.61E2,1.4E1,3.8E1,3.93E2,2.06E2,3.66E2,7.22E2,6.82E2,6.32E2,4.61E2,1.97E2,6.29E2,6.81E2,5.97E2,6.8E1,4.3E2,2.07E2,2.9E1,1.8E1,1.78E2,4.2E1,1.07E2,1.35E2,5E0,1.76E2,3.4E1,1.3E1],"tree_param":{"num_deleted":"0","num_feature":"10","num_nodes":"63","size_leaf_vector":"1"}},{"base_weights":[1.2456657E-3,-3.862947E-1,2.2224076E-1,-5.1588464E-1,-9.024089E-3,6.1435856E-2,7.0714146E-1,-7.3543113E-1,-4.098907E-1,-3.2690257E-1,7.932126E-2,-1.03647895E-1,2.600139E-1,4.5462617E-1,9.078659E-1,-1.2226552E0,-6.938227E-1,-5.5066E-1,-3.365223E-1,-4.878838E-1,-4.8502837E-3,2.9623902E-1,-2.7953556E-2,-4.002058E-2,-2.2814602E-1,3.5503668E-1,7.163842E-2,3.2838997E-1,6.611074E-1,6.9469297E-1,1.1264088E0,-1.432648E-1,-1.006906E-1,-5.8811314E-2,-8.895426E-2,-6.575051E-2,-4.6474367E-2,-1.3268627E-2,-5.3548183E-2,-1.5128373E-1,-4.33916E-2,6.480401E-2,-8.3100125E-3,-1.7686539E-3,4.0318377E-2,8.526494E-3,-1.9545466E-2,-2.2255925E-2,1.4955635E-2,-3.2661173E-2,-1.087243E-2,8.9173205E-3,6.0166594E-2,-2.8230154E-3,1.8629735E-2,1.2276688E-2,4.482469E-2,1.4014949E-1,6.019772E-2,6.6981174E-2,2.0510529E-1,1.28926E-1,8.035575E-2],"categories":[],"categories_nodes":[],"categories_segments":[],"categories_sizes":[],"default_left":[0,0,0,0,0,0,0,0,0,0,0,0,0,0,0,0,0,0,0,0,0,0,0,0,0,0,0,0,0,0,0,0,0,0,0,0,0,0,0,0,0,0,0,0,0,0,0,0,0,0,0,0,0,0,0,0,0,0,0,0,0,0,0],"id":20,"left_children":[1,3,5,7,9,11,13,15,17,19,21,23,25,27,29,31,33,35,37,39,41,43,45,47,49,51,53,55,57,59,61,-1,-1,-1,-1,-1,-1,-1,-1,-1,-1,-1,-1,-1,-1,-1,-1,-1,-1,-1,-1,-1,-1,-1,-1,-1,-1,-1,-1,-1,-1,-1,-1],"loss_changes":[6.853277E2,1.4207108E2,3.973141E2,5.0032837E1,2.0919744E1,1.2551649E2,6.3907776E1,1.3403381E1,1.4903931E1,8.396421E0,1.3574583E1,1.6554686E1,3.1084694E1,1.4483795E1,3.2108276E1,1.0039673E0,1.2925018E1,4.275116E0,3.898353E1,5.31752E0,2.8637238E0,6.486658E0,7.431677E0,4.7961372E1,8.278065E0,7.567937E1,6.6925406E0,8.620136E0,8.481316E0,1.0775452E1,1.7208069E1,0E0,0E0,0E0,0E0,0E0,0E0,0E0,0E0,0E0,0E0,0E0,0E0,0E0,0E0,0E0,0E0,0E0,0E0,0E0,0E0,0E0,0E0,0E0,0E0,0E0,0E0,0E0,0E0,0E0,0E0,0E0,0E0],"parents":[2147483647,0,0,1,1,2,2,3,3,4,4,5,5,6,6,7,7,8,8,9,9,10,10,11,11,12,12,13,13,14,14,15,15,16,16,17,17,18,18,19,19,20,20,21,21,22,22,23,23,24,24,25,25,26,26,27,27,28,28,29,29,30,30],"right_children":[2,4,6,8,10,12,14,16,18,20,22,24,26,28,30,32,34,36,38,40,42,44,46,48,50,52,54,56,58,60,62,-1,-1,-1,-1,-1,-1,-1,-1,-1,-1,-1,-1,-1,-1,-1,-1,-1,-1,-1,-1,-1,-1,-1,-1,-1,-1,-1,-1,-1,-1,-1,-1],"split_conditions":[-3.613195E-1,9.2902315E-1,1.3462132E-1,-1.2624086E0,-1.5092287E0,6.377141E-1,4.9275628E-1,-2.2183466E0,1E0,1.8795213E0,-1.7069348E0,2E0,2E0,1.6722622E0,1.4632009E0,-2.4299068E0,2E0,-5.620919E-1,2E0,-2.4299068E0,-2.3750856E0,1E0,2E0,1E0,2.1851176E-1,1E0,1.1235187E0,1E0,-2.3750856E0,2.2087433E0,2E0,-1.432648E-1,-1.006906E-1,-5.8811314E-2,-8.895426E-2,-6.575051E-2,-4.6474367E-2,-1.3268627E-2,-5.3548183E-2,-1.5128373E-1,-4.33916E-2,6.480401E-2,-8.3100125E-3,-1.7686539E-3,4.0318377E-2,8.526494E-3,-1.9545466E-2,-2.2255925E-2,1.4955635E-2,-3.2661173E-2,-1.087243E-2,8.9173205E-3,6.0166594E-2,-2.8230154E-3,1.8629735E-2,1.2276688E-2,4.482469E-2,1.4014949E-1,6.019772E-2,6.6981174E-2,2.0510529E-1,1.28926E-1,8.035575E-2],"split_indices":[6,4,4,6,6,6,6,6,3,7,5,3,3,7,7,6,3,7,3,6,5,3,3,3,6,3,6,3,5,6,3,0,0,0,0,0,0,0,0,0,0,0,0,0,0,0,0,0,0,0,0,0,0,0,0,0,0,0,0,0,0,0,0],"split_type":[0,0,0,0,0,0,0,0,0,0,0,0,0,0,0,0,0,0,0,0,0,0,0,0,0,0,0,0,0,0,0,0,0,0,0,0,0,0,0,0,0,0,0,0,0,0,0,0,0,0,0,0,0,0,0,0,0,0,0,0,0,0,0],"sum_hessian":[8E3,2.905E3,5.095E3,2.162E3,7.43E2,3.827E3,1.268E3,7.02E2,1.46E3,1.61E2,5.82E2,2.09E3,1.737E3,5.63E2,7.05E2,5.3E1,6.49E2,4.98E2,9.62E2,1.07E2,5.4E1,1.92E2,3.9E2,1.384E3,7.06E2,1.154E3,5.83E2,3.51E2,2.12E2,3.59E2,3.46E2,2.4E1,2.9E1,4.24E2,2.25E2,2.19E2,2.79E2,4.76E2,4.86E2,4E0,1.03E2,5E0,4.9E1,4.9E1,1.43E2,2.33E2,1.57E2,7.05E2,6.79E2,3.86E2,3.2E2,5.56E2,5.98E2,3.12E2,2.71E2,1.3E2,2.21E2,1.4E1,1.98E2,3.54E2,5E0,2.28E2,1.18E2],"tree_param":{"num_deleted":"0","num_feature":"10","num_nodes":"63","size_leaf_vector":"1"}},{"base_weights":[1.1326873E-3,-3.0870685E-1,2.2701804E-1,-4.327145E-1,4.215458E-2,9.894428E-2,7.36177E-1,-6.624451E-1,-3.4229946E-1,-1.4499602E-1,2.0502903E-1,-6.360746E-3,3.326555E-1,5.968895E-1,1.0384666E0,-8.540784E-1,-5.698598E-1,-2.8065327E-1,-4.6605337E-1,-6.705887E-3,-3.8306707E-1,1.5315948E-1,6.496752E-1,-8.702585E-2,1.0236119E-1,4.3432167E-1,1.3597871E-1,7.1067643E-1,3.6918566E-1,7.0036155E-1,1.2135884E0,-1.2725978E-1,-8.1194475E-2,-2.9442627E-2,-8.361096E-2,-4.6185147E-2,-9.125985E-3,-5.5405386E-2,-3.5545856E-2,-3.1720135E-2,3.08618E-2,-5.350531E-2,-4.578352E-3,2.5917912E-2,-1.4829983E-3,8.045007E-2,3.8495313E-2,-2.9311373E-3,-2.0006372E-2,-4.8814774E-3,1.7123489E-2,1.8056398E-2,7.107132E-2,6.5614986E-3,3.0140413E-2,4.10239E-2,9.809819E-2,1.3537224E-1,3.4410574E-2,5.9028454E-2,1.4085594E-1,1.5871835E-1,7.675897E-2],"categories":[],"categories_nodes":[],"categories_segments":[],"categories_sizes":[],"default_left":[0,0,0,0,0,0,0,0,0,0,0,0,0,0,0,0,0,0,0,0,0,0,0,0,0,0,0,0,0,0,0,0,0,0,0,0,0,0,0,0,0,0,0,0,0,0,0,0,0,0,0,0,0,0,0,0,0,0,0,0,0,0,0],"id":21,"left_children":[1,3,5,7,9,11,13,15,17,19,21,23,25,27,29,31,33,35,37,39,41,43,45,47,49,51,53,55,57,59,61,-1,-1,-1,-1,-1,-1,-1,-1,-1,-1,-1,-1,-1,-1,-1,-1,-1,-1,-1,-1,-1,-1,-1,-1,-1,-1,-1,-1,-1,-1,-1,-1],"loss_changes":[5.600458E2,1.468193E2,3.017186E2,5.1555603E1,2.6914896E1,9.103807E1,3.8537964E1,1.1986237E1,1.3532669E1,1.3528732E1,1.0786516E1,2.2381348E1,2.2915627E1,1.629393E1,1.643924E1,2.9695892E0,3.473419E1,4.107051E1,5.5841064E0,2.5651527E1,7.7161236E0,7.555358E0,1.6986065E0,9.551681E0,1.1326253E1,5.296498E1,4.5547223E0,3.4111786E1,4.8429832E0,7.1200905E0,3.060669E1,0E0,0E0,0E0,0E0,0E0,0E0,0E0,0E0,0E0,0E0,0E0,0E0,0E0,0E0,0E0,0E0,0E0,0E0,0E0,0E0,0E0,0E0,0E0,0E0,0E0,0E0,0E0,0E0,0E0,0E0,0E0,0E0],"parents":[2147483647,0,0,1,1,2,2,3,3,4,4,5,5,6,6,7,7,8,8,9,9,10,10,11,11,12,12,13,13,14,14,15,15,16,16,17,17,18,18,19,19,20,20,21,21,22,22,23,23,24,24,25,25,26,26,27,27,28,28,29,29,30,30],"right_children":[2,4,6,8,10,12,14,16,18,20,22,24,26,28,30,32,34,36,38,40,42,44,46,48,50,52,54,56,58,60,62,-1,-1,-1,-1,-1,-1,-1,-1,-1,-1,-1,-1,-1,-1,-1,-1,-1,-1,-1,-1,-1,-1,-1,-1,-1,-1,-1,-1,-1,-1,-1,-1],"split_conditions":[-1.6934834E-1,3.3322176E-1,8.846778E-1,-1.2624086E0,-9.72493E-1,9.6680754E-1,9.824786E-1,1E0,2E0,2E0,2.1206257E0,4.731674E-1,2E0,2E0,1E0,-2.2183466E0,2E0,1E0,-6.35564E-1,1E0,1.8795211E0,2E0,2E0,2E0,1E0,1E0,-4.771662E-1,1E0,-2.565986E0,2.0128546E0,2E0,-1.2725978E-1,-8.1194475E-2,-2.9442627E-2,-8.361096E-2,-4.6185147E-2,-9.125985E-3,-5.5405386E-2,-3.5545856E-2,-3.1720135E-2,3.08618E-2,-5.350531E-2,-4.578352E-3,2.5917912E-2,-1.4829983E-3,8.045007E-2,3.8495313E-2,-2.9311373E-3,-2.0006372E-2,-4.8814774E-3,1.7123489E-2,1.8056398E-2,7.107132E-2,6.5614986E-3,3.0140413E-2,4.10239E-2,9.809819E-2,1.3537224E-1,3.4410574E-2,5.9028454E-2,1.4085594E-1,1.5871835E-1,7.675897E-2],"split_indices":[6,4,7,6,6,6,6,3,3,3,4,6,3,3,3,6,3,3,6,3,7,3,3,3,3,3,7,3,5,6,3,0,0,0,0,0,0,0,0,0,0,0,0,0,0,0,0,0,0,0,0,0,0,0,0,0,0,0,0,0,0,0,0],"split_type":[0,0,0,0,0,0,0,0,0,0,0,0,0,0,0,0,0,0,0,0,0,0,0,0,0,0,0,0,0,0,0,0,0,0,0,0,0,0,0,0,0,0,0,0,0,0,0,0,0,0,0,0,0,0,0,0,0,0,0,0,0,0,0],"sum_hessian":[8E3,3.373E3,4.627E3,2.492E3,8.81E2,3.698E3,9.29E2,7.02E2,1.79E3,4.1E2,4.71E2,2.55E3,1.148E3,6.38E2,2.91E2,2.26E2,4.76E2,1.197E3,5.93E2,2.6E2,1.5E2,4.23E2,4.8E1,1.464E3,1.086E3,7.56E2,3.92E2,4.24E2,2.14E2,1.01E2,1.9E2,1.8E1,2.08E2,2.35E2,2.41E2,6.11E2,5.86E2,3.28E2,2.65E2,1.31E2,1.29E2,1.03E2,4.7E1,2.59E2,1.64E2,2.9E1,1.9E1,9.7E2,4.94E2,3.4E2,7.46E2,3.95E2,3.61E2,2.76E2,1.16E2,2.02E2,2.22E2,4E0,2.1E2,8.9E1,1.2E1,1.02E2,8.8E1],"tree_param":{"num_deleted":"0","num_feature":"10","num_nodes":"63","size_leaf_vector":"1"}},{"base_weights":[1.0787771E-3,-2.1701765E-1,2.6349077E-1,-3.0652094E-1,1.7973484E-1,1.1979383E-1,6.538649E-1,-5.0739336E-1,-1.9505416E-1,-1.4117058E-2,3.7314075E-1,4.8653536E-2,3.3617252E-1,5.627662E-1,1.0681415E0,-7.531612E-1,-4.4502962E-1,-2.5261626E-1,-6.853058E-2,-1.1228399E0,8.317032E-3,4.8148265E-1,1.59269E-1,1.0799981E-1,-6.6450335E-2,2.813276E-1,7.0193684E-1,5.27775E-1,1.4171355E0,9.3503255E-1,1.6125787E0,-6.2831275E-2,-9.843684E-2,-6.3112974E-2,-3.5269137E-2,-3.7174813E-2,-1.9143902E-2,-1.325465E-4,-1.9383207E-2,-6.134655E-2,-1.478848E-1,1.34440875E-2,-1.9502938E-2,1.9215321E-2,7.849133E-2,-8.004879E-3,2.1340286E-2,-6.501663E-3,2.6994923E-2,-1.1748135E-2,1.5102698E-3,1.2254654E-2,3.6679115E-2,9.193683E-2,3.31458E-2,2.9749662E-2,6.366335E-2,1.0604242E-1,1.7745402E-1,8.3651476E-2,1.6160166E-1,1.9948874E-1,1.2991221E-1],"categories":[],"categories_nodes":[],"categories_segments":[],"categories_sizes":[],"default_left":[0,0,0,0,0,0,0,0,0,0,0,0,0,0,0,0,0,0,0,0,0,0,0,0,0,0,0,0,0,0,0,0,0,0,0,0,0,0,0,0,0,0,0,0,0,0,0,0,0,0,0,0,0,0,0,0,0,0,0,0,0,0,0],"id":22,"left_children":[1,3,5,7,9,11,13,15,17,19,21,23,25,27,29,31,33,35,37,39,41,43,45,47,49,51,53,55,57,59,61,-1,-1,-1,-1,-1,-1,-1,-1,-1,-1,-1,-1,-1,-1,-1,-1,-1,-1,-1,-1,-1,-1,-1,-1,-1,-1,-1,-1,-1,-1,-1,-1],"loss_changes":[4.5796335E2,1.5523666E2,2.0366077E2,7.974591E1,3.0186413E1,4.086809E1,3.6270935E1,1.9160767E1,1.6697083E1,1.0033234E1,9.26133E0,1.36691475E1,1.2982155E1,2.3258102E1,1.1174347E1,6.771179E0,1.7253693E1,1.1422249E1,6.05437E0,5.435095E-1,1.0182364E1,2.3289486E1,1.7919447E0,3.7003838E1,2.8359153E0,7.7306557E0,6.5423355E0,1.9187958E1,2.0704308E0,8.241905E0,1.3630371E0,0E0,0E0,0E0,0E0,0E0,0E0,0E0,0E0,0E0,0E0,0E0,0E0,0E0,0E0,0E0,0E0,0E0,0E0,0E0,0E0,0E0,0E0,0E0,0E0,0E0,0E0,0E0,0E0,0E0,0E0,0E0,0E0],"parents":[2147483647,0,0,1,1,2,2,3,3,4,4,5,5,6,6,7,7,8,8,9,9,10,10,11,11,12,12,13,13,14,14,15,15,16,16,17,17,18,18,19,19,20,20,21,21,22,22,23,23,24,24,25,25,26,26,27,27,28,28,29,29,30,30],"right_children":[2,4,6,8,10,12,14,16,18,20,22,24,26,28,30,32,34,36,38,40,42,44,46,48,50,52,54,56,58,60,62,-1,-1,-1,-1,-1,-1,-1,-1,-1,-1,-1,-1,-1,-1,-1,-1,-1,-1,-1,-1,-1,-1,-1,-1,-1,-1,-1,-1,-1,-1,-1,-1],"split_conditions":[1.9892287E-1,1.0847278E0,-2.966991E-1,-9.72493E-1,-6.943307E-1,1.2136276E0,1.4212699E0,-1.7442955E0,-4.707968E-1,-2.2183466E0,2E0,2E0,1.9423344E0,3.3717859E0,2.169684E0,2E0,1E0,1E0,2E0,-1.897835E0,2E0,1E0,1.6241246E0,1E0,1.4E1,1E0,2E0,1E0,7.709186E-1,2.0912101E0,-2.1841855E0,-6.2831275E-2,-9.843684E-2,-6.3112974E-2,-3.5269137E-2,-3.7174813E-2,-1.9143902E-2,-1.325465E-4,-1.9383207E-2,-6.134655E-2,-1.478848E-1,1.34440875E-2,-1.9502938E-2,1.9215321E-2,7.849133E-2,-8.004879E-3,2.1340286E-2,-6.501663E-3,2.6994923E-2,-1.1748135E-2,1.5102698E-3,1.2254654E-2,3.6679115E-2,9.193683E-2,3.31458E-2,2.9749662E-2,6.366335E-2,1.0604242E-1,1.7745402E-1,8.3651476E-2,1.6160166E-1,1.9948874E-1,1.2991221E-1],"split_indices":[6,7,7,6,6,6,6,6,7,6,3,3,6,7,7,3,3,3,3,5,3,3,4,3,0,3,3,3,6,6,5,0,0,0,0,0,0,0,0,0,0,0,0,0,0,0,0,0,0,0,0,0,0,0,0,0,0,0,0,0,0,0,0],"split_type":[0,0,0,0,0,0,0,0,0,0,0,0,0,0,0,0,0,0,0,0,0,0,0,0,0,0,0,0,0,0,0,0,0,0,0,0,0,0,0,0,0,0,0,0,0,0,0,0,0,0,0,0,0,0,0,0,0,0,0,0,0,0,0],"sum_hessian":[8E3,4.369E3,3.631E3,3.565E3,8.04E2,2.655E3,9.76E2,1.271E3,2.294E3,4.02E2,4.02E2,1.999E3,6.56E2,8.02E2,1.74E2,2.55E2,1.016E3,1.576E3,7.18E2,7E0,3.95E2,2.66E2,1.36E2,1.319E3,6.8E2,5.72E2,8.4E1,7.72E2,3E1,1.42E2,3.2E1,1.68E2,8.7E1,3.35E2,6.81E2,5.33E2,1.043E3,4.68E2,2.5E2,4E0,3E0,2.44E2,1.51E2,1.37E2,1.29E2,2.5E1,1.11E2,6.38E2,6.81E2,4.18E2,2.62E2,2.01E2,3.71E2,5.2E1,3.2E1,2.49E2,5.23E2,1.7E1,1.3E1,1.26E2,1.6E1,1.2E1,2E1],"tree_param":{"num_deleted":"0","num_feature":"10","num_nodes":"63","size_leaf_vector":"1"}},{"base_weights":[1.0577532E-3,-2.9540232E-1,1.6097945E-1,-2.6065983E-2,-3.966219E-1,4.2733513E-2,5.2139366E-1,-5.8822833E-2,5.407802E-1,-6.663964E-1,-3.511233E-1,-7.724454E-2,1.9182266E-1,3.516529E-1,7.1310717E-1,-3.342299E-1,1.2274871E-2,7.589255E-1,2.6287404E-1,-1.1775236E0,-6.184947E-1,-4.7255448E-1,-2.8937227E-1,-2.5914762E-2,-1.7721872E-1,1.5315993E-1,5.114151E-1,1.0910163E0,3.2770374E-1,1.296947E0,6.532088E-1,-1.05589025E-1,-2.8579602E-2,-1.834642E-2,9.360339E-3,1.0696364E-2,8.513716E-2,6.574044E-4,6.465023E-2,-7.306194E-2,-1.3185655E-1,-5.0523855E-2,-8.3572134E-2,-6.05218E-2,-3.9196063E-2,-1.1093966E-2,-4.6456512E-2,-1.7434891E-2,1.28890565E-2,-2.4850037E-2,-8.4799165E-3,2.2771433E-2,3.7566002E-4,4.454587E-2,1.04317605E-1,1.2455256E-1,4.9715552E-2,1.4814618E-2,4.233743E-2,1.1738002E-1,2.2936547E-1,7.7739164E-2,3.772196E-2],"categories":[],"categories_nodes":[],"categories_segments":[],"categories_sizes":[],"default_left":[0,0,0,0,0,0,0,0,0,0,0,0,0,0,0,0,0,0,0,0,0,0,0,0,0,0,0,0,0,0,0,0,0,0,0,0,0,0,0,0,0,0,0,0,0,0,0,0,0,0,0,0,0,0,0,0,0,0,0,0,0,0,0],"id":23,"left_children":[1,3,5,7,9,11,13,15,17,19,21,23,25,27,29,31,33,35,37,39,41,43,45,47,49,51,53,55,57,59,61,-1,-1,-1,-1,-1,-1,-1,-1,-1,-1,-1,-1,-1,-1,-1,-1,-1,-1,-1,-1,-1,-1,-1,-1,-1,-1,-1,-1,-1,-1,-1,-1],"loss_changes":[3.7937814E2,7.643262E1,2.2150352E2,1.4273538E1,2.4781158E1,7.004409E1,4.1532654E1,1.421977E1,2.3467035E0,6.4454803E0,1.2955627E1,1.1131094E1,2.1495804E1,1.1736435E1,2.0205383E1,4.9061966E0,9.2184515E0,1.2951746E0,1.9622283E0,5.494003E-1,6.2203674E0,6.03891E0,3.6210205E1,3.299647E1,4.8275623E0,1.7364342E1,6.12904E0,1.3076763E0,1.132653E1,4.058487E0,1.8488419E1,0E0,0E0,0E0,0E0,0E0,0E0,0E0,0E0,0E0,0E0,0E0,0E0,0E0,0E0,0E0,0E0,0E0,0E0,0E0,0E0,0E0,0E0,0E0,0E0,0E0,0E0,0E0,0E0,0E0,0E0,0E0,0E0],"parents":[2147483647,0,0,1,1,2,2,3,3,4,4,5,5,6,6,7,7,8,8,9,9,10,10,11,11,12,12,13,13,14,14,15,15,16,16,17,17,18,18,19,19,20,20,21,21,22,22,23,23,24,24,25,25,26,26,27,27,28,28,29,29,30,30],"right_children":[2,4,6,8,10,12,14,16,18,20,22,24,26,28,30,32,34,36,38,40,42,44,46,48,50,52,54,56,58,60,62,-1,-1,-1,-1,-1,-1,-1,-1,-1,-1,-1,-1,-1,-1,-1,-1,-1,-1,-1,-1,-1,-1,-1,-1,-1,-1,-1,-1,-1,-1,-1,-1],"split_conditions":[-4.0441507E-1,-8.4282465E-2,9.2902315E-1,2.8660738E0,-1.6541865E0,6.377141E-1,6.377141E-1,-1.5248998E0,2E0,-2.4299068E0,1E0,2E0,1.7425277E0,-2.3750856E0,-2.1841855E0,-2.4299068E0,1E0,-1.8657466E0,3.9552996E0,5E0,2E0,-1.078273E0,2E0,1E0,2.1851176E-1,2E0,2.2087433E0,2E0,1E0,1.7973766E0,2E0,-1.05589025E-1,-2.8579602E-2,-1.834642E-2,9.360339E-3,1.0696364E-2,8.513716E-2,6.574044E-4,6.465023E-2,-7.306194E-2,-1.3185655E-1,-5.0523855E-2,-8.3572134E-2,-6.05218E-2,-3.9196063E-2,-1.1093966E-2,-4.6456512E-2,-1.7434891E-2,1.28890565E-2,-2.4850037E-2,-8.4799165E-3,2.2771433E-2,3.7566002E-4,4.454587E-2,1.04317605E-1,1.2455256E-1,4.9715552E-2,1.4814618E-2,4.233743E-2,1.1738002E-1,2.2936547E-1,7.7739164E-2,3.772196E-2],"split_indices":[6,5,4,7,6,6,6,6,3,6,3,3,6,5,5,6,3,6,7,0,3,6,3,3,6,3,6,3,3,6,3,0,0,0,0,0,0,0,0,0,0,0,0,0,0,0,0,0,0,0,0,0,0,0,0,0,0,0,0,0,0,0,0],"split_type":[0,0,0,0,0,0,0,0,0,0,0,0,0,0,0,0,0,0,0,0,0,0,0,0,0,0,0,0,0,0,0,0,0,0,0,0,0,0,0,0,0,0,0,0,0,0,0,0,0,0,0,0,0,0,0,0,0,0,0,0,0,0,0],"sum_hessian":[8E3,2.803E3,5.197E3,7.66E2,2.037E3,3.914E3,1.283E3,7.25E2,4.1E1,2.92E2,1.745E3,2.169E3,1.745E3,6.82E2,6.01E2,1.48E2,5.77E2,2.2E1,1.9E1,2.3E1,2.69E2,5.86E2,1.159E3,1.434E3,7.35E2,1.558E3,1.87E2,2E1,6.62E2,5.4E1,5.47E2,8E0,1.4E2,1.69E2,4.08E2,3E0,1.9E1,1.2E1,7E0,7E0,1.6E1,1.79E2,9E1,2.19E2,3.67E2,5.75E2,5.84E2,7.32E2,7.02E2,4.14E2,3.21E2,1.039E3,5.19E2,1.68E2,1.9E1,1.5E1,5E0,2.31E2,4.31E2,5E1,4E0,3.76E2,1.71E2],"tree_param":{"num_deleted":"0","num_feature":"10","num_nodes":"63","size_leaf_vector":"1"}},{"base_weights":[9.954817E-4,-1.5427831E-1,2.507086E-1,-2.420187E-1,1.08996816E-1,1.5287356E-1,6.9439894E-1,-3.8615528E-1,-1.19770244E-1,-9.278678E-2,2.294561E-1,1.0264135E-1,3.8129777E-1,6.519535E-1,1.3447653E0,-5.9504735E-1,-3.4090298E-1,-1.53064E-1,2.3850683E-2,1.5378143E-2,-2.7356738E-1,3.3117363E-1,4.1947145E-2,1.6435428E-1,-2.2290122E-2,4.9947822E-1,1.5530485E-1,4.2908704E-1,7.5558627E-1,2.1110058E-1,1.1325436E0,-1.0446143E-1,-5.5232454E-2,-2.8097603E-2,-4.578763E-2,-2.5097856E-2,-1.0031004E-2,9.392136E-3,-1.0297224E-2,-2.5352001E-2,2.8977156E-2,-3.6695823E-2,6.78728E-3,8.317045E-3,5.87912E-2,-7.248141E-3,1.683761E-2,-1.4183723E-3,3.360651E-2,-7.292432E-3,6.351694E-3,2.4316503E-2,7.4904405E-2,7.5594815E-3,3.3473816E-2,3.6907233E-2,1.0166323E-1,1.01887725E-1,4.496774E-2,4.1362762E-2,1.2022684E-1],"categories":[],"categories_nodes":[],"categories_segments":[],"categories_sizes":[],"default_left":[0,0,0,0,0,0,0,0,0,0,0,0,0,0,0,0,0,0,0,0,0,0,0,0,0,0,0,0,0,0,0,0,0,0,0,0,0,0,0,0,0,0,0,0,0,0,0,0,0,0,0,0,0,0,0,0,0,0,0,0,0],"id":24,"left_children":[1,3,5,7,9,11,13,15,17,19,21,23,25,27,29,31,33,35,37,39,41,43,45,47,49,51,53,55,57,-1,59,-1,-1,-1,-1,-1,-1,-1,-1,-1,-1,-1,-1,-1,-1,-1,-1,-1,-1,-1,-1,-1,-1,-1,-1,-1,-1,-1,-1,-1,-1],"loss_changes":[3.1026865E2,1.1400109E2,1.3307101E2,6.516713E1,3.0015766E1,2.8818611E1,1.4416473E1,1.5848068E1,9.586138E0,9.03821E0,1.4729496E1,1.5909157E1,1.2021118E1,1.173204E1,2.975422E0,5.2042694E0,9.671127E0,8.378899E0,3.368794E0,2.1470789E1,5.5414248E0,3.1850746E1,3.9617178E0,4.2341957E1,2.9721107E0,1.881607E1,2.220209E0,5.5487003E0,2.8134598E1,0E0,9.062462E-1,0E0,0E0,0E0,0E0,0E0,0E0,0E0,0E0,0E0,0E0,0E0,0E0,0E0,0E0,0E0,0E0,0E0,0E0,0E0,0E0,0E0,0E0,0E0,0E0,0E0,0E0,0E0,0E0,0E0,0E0],"parents":[2147483647,0,0,1,1,2,2,3,3,4,4,5,5,6,6,7,7,8,8,9,9,10,10,11,11,12,12,13,13,14,14,15,15,16,16,17,17,18,18,19,19,20,20,21,21,22,22,23,23,24,24,25,25,26,26,27,27,28,28,30,30],"right_children":[2,4,6,8,10,12,14,16,18,20,22,24,26,28,30,32,34,36,38,40,42,44,46,48,50,52,54,56,58,-1,60,-1,-1,-1,-1,-1,-1,-1,-1,-1,-1,-1,-1,-1,-1,-1,-1,-1,-1,-1,-1,-1,-1,-1,-1,-1,-1,-1,-1,-1,-1],"split_conditions":[3.7522292E-1,1.0283233E0,1.0786723E0,-6.35564E-1,-8.627952E-1,1.4408587E0,1.9423344E0,-1.6541865E0,-4.4852847E-1,2E0,2E0,2E0,2E0,1E0,-2.0887353E0,-2.4299068E0,2E0,1E0,2E0,1E0,2.0213256E0,1E0,1E1,1E0,1.4E1,1E0,-4.771662E-1,3.123075E0,2E0,2.1110058E-1,8E0,-1.0446143E-1,-5.5232454E-2,-2.8097603E-2,-4.578763E-2,-2.5097856E-2,-1.0031004E-2,9.392136E-3,-1.0297224E-2,-2.5352001E-2,2.8977156E-2,-3.6695823E-2,6.78728E-3,8.317045E-3,5.87912E-2,-7.248141E-3,1.683761E-2,-1.4183723E-3,3.360651E-2,-7.292432E-3,6.351694E-3,2.4316503E-2,7.4904405E-2,7.5594815E-3,3.3473816E-2,3.6907233E-2,1.0166323E-1,1.01887725E-1,4.496774E-2,4.1362762E-2,1.2022684E-1],"split_indices":[6,4,7,6,6,6,6,6,7,3,3,3,3,3,5,6,3,3,3,3,4,3,0,3,0,3,7,7,3,0,0,0,0,0,0,0,0,0,0,0,0,0,0,0,0,0,0,0,0,0,0,0,0,0,0,0,0,0,0,0,0],"split_type":[0,0,0,0,0,0,0,0,0,0,0,0,0,0,0,0,0,0,0,0,0,0,0,0,0,0,0,0,0,0,0,0,0,0,0,0,0,0,0,0,0,0,0,0,0,0,0,0,0,0,0,0,0,0,0,0,0,0,0,0,0],"sum_hessian":[8E3,4.933E3,3.067E3,3.7E3,1.233E3,2.514E3,5.53E2,1.697E3,2.003E3,4.61E2,7.72E2,2.062E3,4.52E2,5.21E2,3.2E1,3E2,1.397E3,1.626E3,3.77E2,2.89E2,1.72E2,5E2,2.72E2,1.38E3,6.82E2,2.96E2,1.56E2,1.67E2,3.54E2,5E0,2.7E1,2.4E1,2.76E2,9.26E2,4.71E2,5.68E2,1.058E3,2.43E2,1.34E2,1.46E2,1.43E2,1.35E2,3.7E1,2.55E2,2.45E2,1.43E2,1.29E2,6.77E2,7.03E2,4.29E2,2.53E2,1.47E2,1.49E2,1.09E2,4.7E1,1.53E2,1.4E1,1.89E2,1.65E2,3E0,2.4E1],"tree_param":{"num_deleted":"0","num_feature":"10","num_nodes":"61","size_leaf_vector":"1"}},{"base_weights":[9.7236974E-4,-2.0781499E-1,1.5318662E-1,-2.7568865E-1,9.116166E-2,7.276071E-2,5.288126E-1,-3.9639175E-1,-1.9558819E-1,-1.2197108E-1,1.7630617E-1,-3.2071047E-4,2.3583165E-1,4.6344683E-1,8.9684874E-1,-5.6016123E-1,-3.1815648E-1,-2.2582978E-1,-4.0992793E-2,-1.057003E0,-8.902761E-2,1.2546776E-1,4.7858185E-1,-3.0069187E-2,1.8008512E-1,2.1222678E-1,7.880917E-1,4.258332E-1,1.0852087E0,7.5066423E-1,1.2683566E0,-1.17399655E-1,-5.4068882E-2,-9.624149E-3,-5.2933473E-2,-1.8017782E-2,-3.1684186E-2,-1.8219076E-2,2.9831424E-3,-4.905801E-2,-1.4598994E-1,-1.8454116E-2,1.9736558E-2,2.110717E-2,-3.2185526E-3,2.510794E-2,6.088063E-2,-1.2213583E-2,1.4594406E-3,2.5371915E-2,1.6802846E-3,1.43608125E-2,3.7387915E-2,5.219059E-2,1.1669067E-1,5.1648494E-2,2.3576224E-2,1.5770362E-1,8.356679E-2,5.1583778E-2,8.9766264E-2,1.5490738E-1,1.03418134E-1],"categories":[],"categories_nodes":[],"categories_segments":[],"categories_sizes":[],"default_left":[0,0,0,0,0,0,0,0,0,0,0,0,0,0,0,0,0,0,0,0,0,0,0,0,0,0,0,0,0,0,0,0,0,0,0,0,0,0,0,0,0,0,0,0,0,0,0,0,0,0,0,0,0,0,0,0,0,0,0,0,0,0,0],"id":25,"left_children":[1,3,5,7,9,11,13,15,17,19,21,23,25,27,29,31,33,35,37,39,41,43,45,47,49,51,53,55,57,59,61,-1,-1,-1,-1,-1,-1,-1,-1,-1,-1,-1,-1,-1,-1,-1,-1,-1,-1,-1,-1,-1,-1,-1,-1,-1,-1,-1,-1,-1,-1,-1,-1],"loss_changes":[2.5430688E2,6.849251E1,1.3977371E2,2.6510483E1,1.136343E1,4.5441338E1,1.9214828E1,1.3864349E1,7.7282104E0,5.4196687E0,6.8090982E0,1.4141563E1,1.5215256E1,1.57916565E1,5.673546E0,3.584587E0,3.4815582E1,5.693268E0,2.7254992E0,6.5305996E-1,4.7960925E0,5.189158E0,1.7432299E0,9.303187E0,4.480365E0,1.2513966E1,4.2310696E0,1.1198517E1,3.4686317E0,2.6436768E0,5.672989E-1,0E0,0E0,0E0,0E0,0E0,0E0,0E0,0E0,0E0,0E0,0E0,0E0,0E0,0E0,0E0,0E0,0E0,0E0,0E0,0E0,0E0,0E0,0E0,0E0,0E0,0E0,0E0,0E0,0E0,0E0,0E0,0E0],"parents":[2147483647,0,0,1,1,2,2,3,3,4,4,5,5,6,6,7,7,8,8,9,9,10,10,11,11,12,12,13,13,14,14,15,15,16,16,17,17,18,18,19,19,20,20,21,21,22,22,23,23,24,24,25,25,26,26,27,27,28,28,29,29,30,30],"right_children":[2,4,6,8,10,12,14,16,18,20,22,24,26,28,30,32,34,36,38,40,42,44,46,48,50,52,54,56,58,60,62,-1,-1,-1,-1,-1,-1,-1,-1,-1,-1,-1,-1,-1,-1,-1,-1,-1,-1,-1,-1,-1,-1,-1,-1,-1,-1,-1,-1,-1,-1,-1,-1],"split_conditions":[-1.6934834E-1,1.1429546E0,1.0786723E0,-1.078273E0,-1.2780797E0,9.6680754E-1,1.4212699E0,1E0,-3.7481987E-1,-2.4299068E0,2.1206257E0,-1.6327935E-1,2.0912101E0,3.3717859E0,2.169684E0,-2.4299068E0,2E0,2E0,1E0,-1.897835E0,2.3403678E0,2E0,2.4235759E0,1E0,2E0,-3.6187983E-1,-4.707968E-1,2E0,-2.565986E0,1E0,-2.1841855E0,-1.17399655E-1,-5.4068882E-2,-9.624149E-3,-5.2933473E-2,-1.8017782E-2,-3.1684186E-2,-1.8219076E-2,2.9831424E-3,-4.905801E-2,-1.4598994E-1,-1.8454116E-2,1.9736558E-2,2.110717E-2,-3.2185526E-3,2.510794E-2,6.088063E-2,-1.2213583E-2,1.4594406E-3,2.5371915E-2,1.6802846E-3,1.43608125E-2,3.7387915E-2,5.219059E-2,1.1669067E-1,5.1648494E-2,2.3576224E-2,1.5770362E-1,8.356679E-2,5.1583778E-2,8.9766264E-2,1.5490738E-1,1.03418134E-1],"split_indices":[6,7,7,6,6,6,6,3,7,6,4,4,6,7,7,6,3,3,3,5,7,3,7,3,3,4,7,3,5,3,5,0,0,0,0,0,0,0,0,0,0,0,0,0,0,0,0,0,0,0,0,0,0,0,0,0,0,0,0,0,0,0,0],"split_type":[0,0,0,0,0,0,0,0,0,0,0,0,0,0,0,0,0,0,0,0,0,0,0,0,0,0,0,0,0,0,0,0,0,0,0,0,0,0,0,0,0,0,0,0,0,0,0,0,0,0,0,0,0,0,0,0,0,0,0,0,0,0,0],"sum_hessian":[8E3,3.373E3,4.627E3,2.749E3,6.24E2,3.812E3,8.15E2,1.095E3,1.654E3,1.78E2,4.46E2,2.633E3,1.179E3,6.94E2,1.21E2,3.52E2,7.43E2,1.383E3,2.71E2,5E0,1.73E2,3.83E2,6.3E1,2.261E3,3.72E2,1.132E3,4.7E1,6.56E2,3.8E1,8.9E1,3.2E1,9E0,3.43E2,3.63E2,3.8E2,9.23E2,4.6E2,9E1,1.81E2,3E0,2E0,1.3E2,4.3E1,2.48E2,1.35E2,2.4E1,3.9E1,7.38E2,1.523E3,2.56E2,1.16E2,7.96E2,3.36E2,2.9E1,1.8E1,4.43E2,2.13E2,1.1E1,2.7E1,3.6E1,5.3E1,1.2E1,2E1],"tree_param":{"num_deleted":"0","num_feature":"10","num_nodes":"63","size_leaf_vector":"1"}},{"base_weights":[9.4588305E-4,-1.1717423E-1,2.2528817E-1,-1.7031378E-1,1.7679434E-1,1.433677E-1,5.899233E-1,-2.9437107E-1,-6.597954E-2,1.9445391E-2,2.9112658E-1,2.0990926E-1,1.0359249E-2,5.508984E-1,1.1325867E0,-5.5518335E-1,-2.6345748E-1,-1.16392784E-1,6.2146146E-2,-2.0834155E-2,3.93578E-1,8.516138E-1,2.62699E-1,2.6628817E-2,3.8668618E-1,-3.6160417E-2,8.351695E-2,3.4416768E-1,6.483614E-1,1.8145804E-1,9.4599575E-1,-4.5127794E-2,-7.538402E-2,-3.9164387E-2,-2.0278653E-2,-7.5947433E-3,-1.9638702E-2,1.1735939E-2,-4.8310757E-3,6.5406556E-3,-1.6741192E-2,-1.0128943E-2,4.8556466E-2,9.41819E-2,2.102356E-2,3.3558145E-2,1.2188613E-2,1.3943999E-3,9.499577E-2,3.2798752E-2,7.485204E-2,-7.763388E-3,9.848448E-3,2.494103E-3,2.112215E-2,2.8957674E-2,8.307386E-2,8.958725E-2,3.6377363E-2,3.2482624E-2,1.0075431E-1],"categories":[],"categories_nodes":[],"categories_segments":[],"categories_sizes":[],"default_left":[0,0,0,0,0,0,0,0,0,0,0,0,0,0,0,0,0,0,0,0,0,0,0,0,0,0,0,0,0,0,0,0,0,0,0,0,0,0,0,0,0,0,0,0,0,0,0,0,0,0,0,0,0,0,0,0,0,0,0,0,0],"id":26,"left_children":[1,3,5,7,9,11,13,15,17,19,21,23,25,27,29,31,33,35,37,39,41,43,45,47,49,51,53,55,57,-1,59,-1,-1,-1,-1,-1,-1,-1,-1,-1,-1,-1,-1,-1,-1,-1,-1,-1,-1,-1,-1,-1,-1,-1,-1,-1,-1,-1,-1,-1,-1],"loss_changes":[2.1204759E2,8.191725E1,8.2359604E1,5.744937E1,1.4440361E1,1.9955914E1,1.0091843E1,1.6204788E1,1.5593359E1,5.116893E0,7.185261E0,4.868653E1,2.5656836E0,9.327286E0,2.482788E0,4.077095E0,1.4036179E1,5.588789E0,4.1649723E0,3.8917272E0,1.5513825E0,1.0748215E0,4.515774E0,8.642113E0,1.6002464E1,2.5819573E0,2.186493E0,3.8500404E0,2.2284912E1,0E0,7.432003E-1,0E0,0E0,0E0,0E0,0E0,0E0,0E0,0E0,0E0,0E0,0E0,0E0,0E0,0E0,0E0,0E0,0E0,0E0,0E0,0E0,0E0,0E0,0E0,0E0,0E0,0E0,0E0,0E0,0E0,0E0],"parents":[2147483647,0,0,1,1,2,2,3,3,4,4,5,5,6,6,7,7,8,8,9,9,10,10,11,11,12,12,13,13,14,14,15,15,16,16,17,17,18,18,19,19,20,20,21,21,22,22,23,23,24,24,25,25,26,26,27,27,28,28,30,30],"right_children":[2,4,6,8,10,12,14,16,18,20,22,24,26,28,30,32,34,36,38,40,42,44,46,48,50,52,54,56,58,-1,60,-1,-1,-1,-1,-1,-1,-1,-1,-1,-1,-1,-1,-1,-1,-1,-1,-1,-1,-1,-1,-1,-1,-1,-1,-1,-1,-1,-1,-1,-1],"split_conditions":[4.9275628E-1,1.2577441E0,1.0786723E0,-5.846329E-1,-6.747418E-1,2E0,1.9423344E0,-1.8344043E0,-4.4852847E-1,2.8660738E0,-2.3750856E0,1E0,1.1235187E0,1E0,-2.0887353E0,2E0,1E0,2E0,2E0,2E0,-1.9205955E0,5E0,2E0,2.2087433E0,1.5662277E0,1.7E1,-4.726489E-1,3.123075E0,2E0,1.8145804E-1,8E0,-4.5127794E-2,-7.538402E-2,-3.9164387E-2,-2.0278653E-2,-7.5947433E-3,-1.9638702E-2,1.1735939E-2,-4.8310757E-3,6.5406556E-3,-1.6741192E-2,-1.0128943E-2,4.8556466E-2,9.41819E-2,2.102356E-2,3.3558145E-2,1.2188613E-2,1.3943999E-3,9.499577E-2,3.2798752E-2,7.485204E-2,-7.763388E-3,9.848448E-3,2.494103E-3,2.112215E-2,2.8957674E-2,8.307386E-2,8.958725E-2,3.6377363E-2,3.2482624E-2,1.0075431E-1],"split_indices":[6,7,7,6,6,3,6,6,7,7,5,3,6,3,5,3,3,3,3,3,6,1,3,6,6,0,7,7,3,0,0,0,0,0,0,0,0,0,0,0,0,0,0,0,0,0,0,0,0,0,0,0,0,0,0,0,0,0,0,0,0],"split_type":[0,0,0,0,0,0,0,0,0,0,0,0,0,0,0,0,0,0,0,0,0,0,0,0,0,0,0,0,0,0,0,0,0,0,0,0,0,0,0,0,0,0,0,